<?xml version="1.0"?>
<opencv_storage>
<opencv_ml_svm>
  <format>3</format>
  <svmType>C_SVC</svmType>
  <kernel>
    <type>LINEAR</type></kernel>
  <C>1.</C>
  <term_criteria><iterations>100</iterations></term_criteria>
  <var_count>4096</var_count>
  <class_count>2</class_count>
  <class_labels type_id="opencv-matrix">
    <rows>2</rows>
    <cols>1</cols>
    <dt>i</dt>
    <data>
      0 1</data></class_labels>
  <sv_total>1</sv_total>
  <support_vectors>
    <_>
      -2.49695078e-01 -3.47708136e-01 -1.15529029e-02 -6.09350726e-02
      -2.76352614e-02 -1.86702944e-02 1.31166175e-01 -4.78098124e-01
      1.51651837e-02 -2.69861836e-02 -1.24412822e-02 -7.37834116e-03
      -1.20998830e-01 -1.62979439e-02 -1.49789736e-01 -5.49266696e-01
      -1.20417796e-01 -3.48222047e-01 -8.74024443e-03 -2.34971698e-02
      -6.96324883e-03 0. -2.86191143e-02 -4.08848003e-02 -1.37148267e-02
      -1.11589367e-02 -2.95266742e-03 -3.49167585e-02 -1.00670539e-01
      -3.50935459e-02 2.48684093e-01 -6.17775261e-01 4.12835255e-02
      2.31911242e-02 -1.30718956e-02 -9.11954138e-03 -1.71428714e-02
      3.26797389e-03 0. 3.97533266e-04 -1.32299084e-02 3.26797389e-03 0.
      0. 0. 1.61558844e-03 2.51898821e-03 2.43702605e-02 2.03361493e-02
      6.91512786e-03 -2.83416826e-04 -7.65425712e-03 3.45459878e-02
      -3.26797389e-03 7.77587434e-03 3.26797389e-03 -9.17638466e-02
      7.87440501e-03 3.18897473e-05 -3.17281857e-03 -8.32443759e-02
      -8.54534376e-03 4.36222434e-01 -7.10989907e-02 -3.10984980e-02
      9.91559494e-03 -4.07097675e-03 1.58127826e-02 3.74699570e-02
      1.43989390e-02 1.61558867e-03 9.53408983e-03 -1.30718956e-02 0.
      3.26797389e-03 -4.11036704e-03 -5.51209319e-03 -3.26797389e-03
      -3.06510460e-03 -1.59926731e-02 1.77994184e-03 -1.30718956e-02 0.
      -8.42393260e-04 -7.37834116e-03 1.08656175e-02 3.26797389e-03
      -6.53594779e-03 2.42558075e-03 -3.26797389e-03 0. -6.53594779e-03
      3.58263605e-05 -2.95266742e-03 -2.26897392e-02 1.36611355e-03
      6.73429370e-02 4.06793039e-03 3.26797389e-03 -3.26797389e-03
      -1.55025674e-02 3.26797389e-03 -3.26797389e-03 5.16553968e-03
      -9.47857928e-03 -3.26797389e-03 -8.42393260e-04 -3.26797389e-03
      -4.92953323e-03 -6.53594779e-03 -3.91871989e-04 1.25548448e-02
      2.20000148e-01 7.01661268e-03 9.02304612e-03 -3.55139072e-03
      1.04549527e-02 -6.53594779e-03 1.02790790e-02 1.84895340e-02
      2.12644875e-01 3.26797389e-03 1.34694297e-02 -2.83416826e-04
      7.20183104e-02 -5.48311928e-03 8.93550068e-02 3.79223190e-02
      -5.59839932e-03 1.40549708e-02 0. 1.32313117e-01 1.05447154e-02
      -3.26797366e-03 2.14216392e-03 3.15890610e-01 2.48709857e-03
      3.26797389e-03 -3.26797389e-03 -1.06463153e-02 9.45481751e-03
      5.75507246e-03 -6.22064108e-03 3.24646205e-01 -1.45599274e-02
      -2.38147061e-02 1.52140595e-02 -3.15282978e-02 0. 0. 0.
      -2.40414403e-03 -3.26797389e-03 -8.18833336e-03 -4.11036704e-03
      -1.80246551e-02 5.46167896e-04 -9.36675910e-03 -3.24034505e-03
      -2.53601503e-02 3.26797389e-03 -1.00873383e-02 -6.53594779e-03
      8.96152854e-03 -3.26797389e-03 0. -3.26797389e-03 3.26797389e-03
      0. 0. 0. 5.69355441e-03 0. 0. -3.26797389e-03 6.85125450e-03
      3.26797389e-03 2.11089533e-02 -3.26797389e-03 1.16257891e-02 0.
      3.26797389e-03 -6.53594779e-03 -8.15921649e-03 3.26797389e-03
      -4.42060595e-03 1.30718956e-02 -3.07693407e-02 4.13653515e-02
      1.54974768e-02 -8.03986378e-03 -1.69169515e-01 3.82656744e-03
      2.51807988e-01 1.87654495e-02 4.71550852e-01 5.45598054e-03
      -3.94894090e-03 6.53594779e-03 1.12318778e+00 0. 1.76669136e-02 0.
      5.22659607e-02 3.26797389e-03 -9.90496017e-04 -1.22116003e-02
      2.58861296e-02 1.62746441e-02 2.45420192e-03 3.26797389e-03
      -9.47857928e-03 0. -7.37834116e-03 -1.35944434e-03 1.76920425e-02
      2.20949426e-02 1.79554578e-02 0. 2.21529249e-02 -5.70123503e-03
      1.06912060e-02 3.97533498e-04 5.91234751e-02 4.15391363e-02
      -3.09786975e-01 -9.80392192e-03 1.16018377e-01 6.33895956e-03
      8.76269583e-03 -2.68398933e-02 1.42833322e-01 -2.40057968e-02
      2.82731466e-02 -6.53594825e-03 1.35886241e-02 -1.43192112e-02
      -2.57462580e-02 -1.33876950e-01 -4.54471499e-01 4.46834326e-01
      -3.98371190e-01 4.08312753e-02 7.56241083e-02 9.93159600e-03
      -1.38510531e-03 -3.26797366e-03 7.51418397e-02 2.53146499e-01
      8.13528672e-02 -3.72350728e-03 -1.79406721e-03 2.81323325e-02
      9.26895887e-02 -5.27288437e-01 -9.87666696e-02 -1.72509432e-01
      -4.97251481e-01 -2.30640005e-02 -2.26904242e-03 -9.20788422e-02
      8.67811125e-03 2.23056693e-02 -2.54136771e-02 -5.80499507e-03
      6.41732477e-03 -9.80392192e-03 -1.39142890e-02 -5.67296334e-03
      2.08733924e-04 -3.39062750e-01 -2.08912030e-01 -3.63537699e-01
      -3.99292409e-01 -4.32522558e-02 -5.39723672e-02 -1.77146457e-02 0.
      -1.01692647e-01 -2.00861525e-02 -6.46502823e-02 -1.80246551e-02 0.
      1.58995278e-02 -1.65051594e-01 -7.10980408e-03 -3.86945188e-01
      -4.85209435e-01 -1.89410355e-02 -2.94263172e-03 -1.06463153e-02
      -1.30718956e-02 -4.04884946e-03 6.53594779e-03 2.24652910e-03
      2.53483094e-02 -8.56399536e-03 -6.99148094e-03 -4.11036704e-03 0.
      -3.26797389e-03 -6.53594779e-03 -2.28758175e-02 2.09766328e-02
      8.01434219e-02 -1.30718956e-02 3.26797389e-03 6.05763774e-03
      -1.96203403e-02 -3.26797389e-03 -8.92887264e-03 -7.38862297e-03
      1.53775826e-01 4.95002512e-03 0. 3.15306563e-04 -1.95510775e-01
      3.15306563e-04 -5.93804643e-02 -7.88737163e-02 9.41055715e-02
      2.08439548e-02 0. -2.84120776e-02 4.90711182e-02 3.26797389e-03
      7.46306032e-04 2.12525483e-02 -1.26743624e-02 0. 0.
      -3.26797389e-03 1.30718956e-02 -6.53594779e-03 6.84380240e-04
      -2.12334674e-02 -3.81845725e-03 1.19535858e-02 -6.53594779e-03
      -6.53594779e-03 1.63398702e-02 3.26797389e-03 2.42558075e-03 0.
      1.08029880e-02 6.53594779e-03 1.77994184e-03 -8.42393260e-04
      -1.80761053e-04 0. -2.96235457e-02 -2.48936545e-02 9.11717638e-02
      -3.88989113e-02 2.24652910e-03 1.78096001e-03 4.19750856e-03 0.
      7.02059781e-03 -1.13111725e-02 -1.06234569e-02 0. -3.26797389e-03
      -3.26797389e-03 -1.58134736e-02 5.69355441e-03 -2.63736071e-03
      -3.26727480e-02 2.67200381e-01 -1.83266040e-03 1.55589944e-02
      4.04160656e-03 2.44792644e-02 3.26797389e-03 1.70523021e-02
      2.27565747e-02 7.38429844e-01 3.95235373e-03 1.15136132e-02
      1.43118221e-02 4.37995553e-01 8.33550654e-03 -7.52285495e-02
      -1.42379645e-02 2.67979223e-02 1.51214628e-02 0. 9.85165834e-02 0.
      2.61594653e-02 3.26797389e-03 1.72224209e-01 -3.26797389e-03
      -1.68619100e-02 -3.26797389e-03 0. -3.15884757e-03 2.13877857e-02
      -2.95266742e-03 1.25727341e-01 3.26797389e-03 1.27884792e-02
      9.80392192e-03 1.74572859e-02 0. 3.26797389e-03 3.26797389e-03
      -3.79506056e-03 2.18190966e-04 3.95235373e-03 0. -1.46975191e-02
      8.18065275e-03 2.05464102e-02 -3.98388654e-02 -1.41595557e-01
      -7.37834116e-03 -1.06463153e-02 0. -3.17281857e-03 1.77994184e-03
      3.26797389e-03 0. 8.80351476e-03 0. 3.26797389e-03 0.
      3.26797389e-03 -3.26797389e-03 -6.53594779e-03 -6.53594779e-03
      -5.53688128e-03 -8.42393260e-04 -2.04590266e-03 0. 1.11309653e-02
      -3.26797389e-03 0. 0. 9.80392192e-03 0. -3.26797389e-03
      1.63398702e-02 2.08637677e-02 2.79306192e-02 1.27045829e-02
      -2.58359383e-03 1.72866369e-03 1.03922598e-01 1.46544904e-01 0.
      6.37229264e-01 1.96078438e-02 3.39253955e-02 5.49875060e-03
      6.19601965e-01 -6.72699045e-03 8.67394265e-03 3.26797389e-03
      3.81942429e-02 2.48709857e-03 -4.96304221e-03 1.97195169e-02
      -9.45535824e-02 1.99331846e-02 -1.24670761e-02 0. 3.98424361e-03
      0. 0. 5.41763846e-03 -6.99651754e-03 1.49381431e-02 1.49038769e-02
      -6.53594779e-03 3.97960991e-02 9.80392192e-03 2.33386848e-02
      -2.09672879e-02 -6.37557730e-02 -2.85713542e-02 -2.64319807e-01
      -1.39380507e-02 1.90821007e-01 3.26797389e-03 -6.18400797e-03
      -1.14271902e-02 1.26799241e-01 -8.42393492e-04 1.93053135e-03
      3.26797389e-03 8.00160132e-03 -2.67584138e-02 -2.32830644e-10
      -2.03906715e-01 -4.73460406e-01 6.61743879e-01 -9.29447562e-02
      1.27193406e-02 1.09385163e-01 -8.80239811e-03 -1.73187274e-02
      2.86048185e-02 1.08397186e-01 3.62049311e-01 3.90002951e-02
      2.20334232e-02 1.05150290e-01 1.85628179e-02 -6.62682985e-04
      -4.36866552e-01 -1.07795984e-01 -2.09623724e-01 -4.66994077e-01
      -6.10106252e-02 -9.63044092e-02 -8.92303884e-03 -7.45125674e-03
      1.88346487e-02 -1.17593318e-01 -4.82680909e-02 -3.66893713e-03
      -9.48861521e-03 -6.53594779e-03 9.55803692e-02 9.83074191e-04
      -3.92843753e-01 -1.04789495e+00 -7.88472831e-01 -5.93120694e-01
      -1.02715464e-02 -3.77830192e-02 -2.32703239e-02 -3.78502510e-03
      -2.32635289e-02 -3.41199003e-02 -2.02691071e-02 -2.45337039e-02
      -2.06468813e-02 -4.95366603e-02 -1.03401765e-01 -3.07718180e-02
      -1.52797207e-01 -5.27777135e-01 9.72951762e-03 1.02508813e-02
      4.90058726e-03 8.66338145e-03 7.56730279e-03 0. -2.94263172e-03
      -6.89561246e-03 -6.22064108e-03 -7.80875445e-04 3.26797389e-03
      -6.53594779e-03 6.53594779e-03 -3.26797389e-03 -1.30718956e-02
      1.59884170e-02 3.78261656e-02 -1.63634238e-03 -4.89124237e-03
      -6.98035350e-03 4.71149990e-03 -7.37834116e-03 -8.83855764e-03
      1.28705851e-05 1.53414503e-01 1.02834860e-02 1.23992655e-03
      -1.30718956e-02 1.67679384e-01 3.88987176e-03 2.25333810e-01
      -8.66122842e-02 1.06299691e-01 1.46550834e-02 1.12821965e-03
      3.19127645e-03 9.35039669e-02 1.64470519e-03 1.30718956e-02
      -6.21060561e-03 8.67811125e-03 -3.26797389e-03 0. -5.53626101e-03
      3.07481270e-02 -3.26797389e-03 5.19886892e-03 -1.11830945e-03
      -7.35770119e-03 -4.75136004e-03 -3.26797389e-03 -2.95266742e-03
      3.26797389e-03 1.53493732e-02 0. 0. -6.21060561e-03 3.26797389e-03
      0. -1.68478652e-03 1.11024110e-02 3.26797389e-03 -6.03260240e-03
      -1.84278544e-02 6.81382194e-02 5.58496686e-03 -5.17051085e-04
      -6.41235011e-03 9.54097416e-03 6.53594779e-03 6.84380007e-04
      2.48709857e-03 3.26797389e-03 6.53594779e-03 0. -9.48861521e-03
      2.01709643e-02 3.26797389e-03 -1.76478308e-02 -2.66608428e-02
      2.28260279e-01 -8.84734187e-03 2.13978440e-02 -5.46287221e-04
      1.06919408e-02 3.26797389e-03 1.77994184e-03 3.94625962e-03
      4.57415342e-01 5.07416110e-03 4.38534543e-02 2.89332084e-02
      1.12972176e+00 -6.31897990e-03 8.69165137e-02 6.91120327e-02
      1.13451025e-02 8.00747983e-03 -9.80392192e-03 9.69130248e-02
      -7.37834116e-03 5.04791597e-03 2.42558075e-03 7.49214947e-01
      -2.02804734e-03 -7.75913708e-03 0. -1.41902054e-02 -5.67211816e-03
      2.32011601e-02 -1.14271902e-02 6.67983145e-02 2.90108025e-02
      -2.18660943e-02 6.53594779e-03 1.15492476e-04 3.26797389e-03
      2.42558075e-03 0. -1.09222308e-02 -1.41902054e-02 -3.51070543e-03
      0. 7.77587434e-03 9.80392192e-03 1.83958597e-02 -3.79544608e-02
      -1.63788348e-01 2.42558075e-03 8.32053553e-03 0. 1.76405837e-03 0.
      3.26797389e-03 0. 2.79237330e-02 -8.42393260e-04 3.26797389e-03
      -3.26797389e-03 3.26797389e-03 -3.26797389e-03 -6.53594779e-03
      -9.80392192e-03 -1.32070319e-03 -6.53594779e-03 6.25253096e-03
      -3.26797389e-03 -7.55739259e-03 0. 0. -1.68478652e-03
      -1.32449344e-02 -9.80392192e-03 0. 1.23992655e-03 3.21643241e-02
      1.69708095e-02 4.03651083e-03 1.40104629e-02 1.74316764e-02
      8.98874030e-02 3.20919454e-01 -3.26797389e-03 3.90717864e-01
      4.49305819e-03 -3.42598720e-03 1.12233097e-02 7.43945777e-01 0.
      -1.71748288e-02 -3.26797389e-03 4.82387356e-02 -3.26797389e-03
      2.04357114e-02 -9.80392192e-03 4.91740406e-02 -4.38432861e-03
      1.74834467e-02 0. -1.26457482e-03 0. 0. -9.80392192e-03
      2.07888638e-03 2.14966480e-03 1.46565365e-03 0. 2.50254814e-02
      6.53594732e-03 1.88269671e-02 -4.81601506e-02 -9.18529462e-03
      -1.24507487e-01 -3.89284283e-01 -3.42598720e-03 1.85640797e-01
      -4.11036704e-03 -2.14716811e-02 -1.98148806e-02 3.10640018e-02
      -4.62741824e-03 1.14203682e-02 6.53594779e-03 1.12765410e-03
      -1.96078438e-02 -9.62884165e-03 -1.85875267e-01 -4.81682509e-01
      -2.26685733e-01 -3.69508982e-01 8.18569865e-03 1.36692509e-01
      -1.17062721e-02 2.27641780e-04 1.63398702e-02 6.91544861e-02
      1.47826374e-01 1.27175823e-01 1.51771791e-02 8.60321298e-02
      7.86762163e-02 8.36328566e-02 -4.82895106e-01 8.23742509e-01
      -1.33237883e-01 -1.62805468e-02 -6.03506193e-02 2.99005192e-02
      -1.46018207e-01 -2.24072486e-02 -5.26216552e-02 -2.12261915e-01
      -5.94047010e-02 -2.00506067e-03 -7.06303446e-03 -4.11036704e-03
      -7.67969936e-02 -1.86844524e-02 -1.26073137e-01 -3.26443523e-01
      -4.67518687e-01 -2.64196426e-01 -2.41443887e-02 -1.22680992e-03
      1.58318738e-03 9.80392192e-03 -2.13662703e-02 2.32862793e-02
      -4.77845073e-02 -6.53594825e-03 -1.50691560e-02 -9.80392098e-03
      -1.07916154e-01 -1.86087769e-02 1.66266605e-01 4.76628095e-01
      -3.32815526e-03 2.43134871e-02 5.69355441e-03 9.60698992e-04
      -2.44717877e-02 3.26797389e-03 -1.63398702e-02 1.20813996e-02
      -1.35889463e-02 1.58318738e-03 3.26797389e-03 -3.26797389e-03
      -5.27086668e-04 3.26797389e-03 6.53594779e-03 -7.37834116e-03
      -2.04483960e-02 1.33699579e-02 -2.84457747e-02 0. -2.73551396e-03
      2.24652910e-03 -2.48358073e-03 1.95710454e-02 -8.41653869e-02
      2.25404724e-02 6.53594779e-03 -2.36863215e-02 -1.06264129e-01
      -1.79627649e-02 -6.87311217e-02 -1.38622075e-01 -2.61620246e-02
      1.34694288e-02 5.83984517e-03 -2.86890157e-02 -1.18990675e-01
      2.42558075e-03 -3.26797413e-03 2.42558075e-03 -6.58030575e-03
      -3.26797389e-03 -2.58359383e-03 -3.26797389e-03 1.51671441e-02
      -7.37834116e-03 -1.22719388e-02 -9.48861521e-03 1.63055472e-02
      -1.30718956e-02 -3.26797389e-03 2.42558075e-03 1.85863990e-02
      -1.35374647e-02 -3.26797389e-03 -7.37834116e-03 -1.68054383e-02 0.
      -3.26797389e-03 1.58318738e-03 8.31588916e-03 -8.42393260e-04
      -2.58359383e-03 -6.21759333e-03 6.99936375e-02 -1.11118834e-02
      3.26797389e-03 1.28668416e-02 1.14116967e-02 0. 1.37562752e-02
      -1.94769446e-02 6.53594779e-03 0. 3.26797389e-03 -3.26797389e-03
      -2.16200342e-03 -1.58013252e-04 -1.77325606e-02 -9.40295868e-03
      1.55953392e-01 2.75039487e-03 4.88356221e-03 1.09024588e-02
      5.51450299e-03 5.75507246e-03 7.30950991e-03 1.33872023e-02
      -5.51147340e-03 -1.60245635e-02 2.90809129e-03 5.69355488e-03
      1.59609556e-01 -3.34450416e-02 1.09583348e-01 -5.51867262e-02
      -9.68230423e-03 5.71568832e-02 1.58318738e-03 1.18317746e-01
      -1.27465539e-02 -1.53738782e-02 -3.78502510e-03 -5.15793264e-01
      1.33872023e-02 8.15153588e-03 -1.06463153e-02 -1.30718956e-02
      6.17628312e-03 1.48938401e-02 5.37325768e-03 2.59826392e-01
      1.69177540e-02 -3.26797366e-03 -6.53594779e-03 -8.77957034e-04
      -3.26797389e-03 -3.26797389e-03 -3.26797389e-03 -1.27565889e-02
      -7.86299072e-03 6.53594779e-03 -2.58359383e-03 4.73362766e-03
      1.33872023e-02 3.75262392e-03 4.27989662e-02 -1.59835629e-02
      -1.06463153e-02 -9.80392192e-03 -3.26797389e-03 4.32407437e-03
      -7.37834116e-03 0. 0. -6.53594779e-03 -4.11036704e-03
      3.26797389e-03 -8.42393260e-04 9.27683525e-03 0. -8.42393260e-04
      -7.80875445e-04 -3.13109793e-02 6.53594779e-03 1.00958310e-02 0.
      5.69355441e-03 -4.11036704e-03 6.53594779e-03 -4.11036704e-03
      -6.74772775e-03 0. 1.47781186e-02 8.96152854e-03 -1.14342077e-02
      1.55469021e-02 -1.96078438e-02 -1.76377967e-02 -6.30452782e-02
      5.91562279e-02 2.25113645e-01 0. 5.78940809e-01 -9.80392192e-03
      2.10365672e-02 2.14043781e-02 6.26849532e-01 4.59238235e-03
      3.59562822e-02 0. 6.12998307e-02 -6.53594825e-03 -6.53594779e-03
      -1.65238522e-03 1.17071167e-01 3.58500890e-03 3.26797413e-03 0.
      6.53594779e-03 0. -3.26797389e-03 6.53594779e-03 2.76174806e-02
      -1.15873851e-02 1.43588772e-02 -3.26797389e-03 2.53013987e-02 0.
      5.25284419e-03 -2.13263952e-03 4.14951220e-02 -1.30392075e-01
      3.19913775e-02 -3.26797389e-03 7.82456100e-02 1.88671658e-03
      7.13009154e-03 -1.38527714e-02 9.56450701e-02 0. 2.29514576e-02
      -7.37834116e-03 1.90684143e-02 -3.36446939e-03 4.91267908e-03
      -9.90748703e-02 -9.34460238e-02 -3.67311776e-01 -2.68488824e-01
      4.52300720e-03 5.71505241e-02 -6.27936609e-03 -8.42393725e-04
      -1.33555215e-02 6.87417388e-02 -1.65031001e-01 1.85888931e-01 0.
      6.65113479e-02 5.23849949e-02 1.17297195e-01 -4.43567216e-01
      8.97158802e-01 -9.34917852e-02 -1.45097524e-01 -3.02541591e-02
      -8.65605399e-02 -2.12409616e-01 -1.82364359e-02 -2.00645030e-02
      -2.97013260e-02 1.85256973e-02 4.45019826e-03 -3.26797389e-03
      -1.96078438e-02 -6.50468245e-02 3.33645158e-02 -1.18546560e-01
      5.64966559e-01 -4.03668508e-02 -8.25302824e-02 2.61227340e-02
      1.45375496e-02 1.50395874e-02 1.30718956e-02 3.53338271e-02
      -1.15560871e-02 -1.14464298e-01 8.89420917e-05 3.26797389e-03
      -1.73613150e-02 1.86690241e-01 -9.18827951e-03 4.18556064e-01
      1.40822902e-01 7.72308782e-02 -1.96078438e-02 1.68166626e-02
      3.26797389e-03 1.61780696e-02 3.26797389e-03 0. -6.12623349e-04
      -3.26797389e-03 -6.53594779e-03 0. -3.26797389e-03 -9.80392192e-03
      0. -7.37834116e-03 2.27263756e-02 1.17301270e-01 -1.00950189e-02
      6.53594732e-03 9.67717823e-03 7.02641066e-03 -4.95276041e-03
      2.47396212e-02 -4.35576634e-03 -2.02262715e-01 1.30747315e-02
      -1.23875160e-02 -1.18911881e-02 -6.32075250e-01 -1.56963393e-02
      6.28101900e-02 -9.47074369e-02 -1.82071868e-02 1.77364424e-02
      -1.10799670e-02 -3.69576365e-02 -1.23015985e-01 -9.47857928e-03
      -4.12176885e-02 -1.55990757e-02 1.05201919e-02 -4.11036704e-03
      1.63398702e-02 3.26797389e-03 -4.17992808e-02 -2.83416826e-04
      -2.58284844e-02 -3.30177136e-03 -1.54015487e-02 0. 3.26797389e-03
      0. -7.37834116e-03 -3.26797389e-03 0. 3.26797389e-03
      -3.42598720e-03 -4.11036704e-03 0. 6.53594779e-03 -1.33707887e-03
      0. -3.12872371e-03 -8.42393260e-04 5.95276468e-02 6.52031377e-02
      6.88788760e-03 7.91936181e-03 2.42558075e-03 4.40195762e-03
      -9.41258762e-03 1.57073494e-02 6.25253096e-03 -3.26797389e-03
      -3.26797389e-03 -3.26797389e-03 -2.32830644e-10 -3.26797389e-03
      7.22032785e-03 9.97017696e-03 9.83121097e-02 6.13498455e-03
      4.67229728e-03 9.02304612e-03 -1.52911143e-02 -3.26797389e-03
      4.76449914e-03 2.86308900e-02 -1.60150573e-01 1.63901728e-02
      1.23229101e-02 -3.06161214e-03 -1.02884853e+00 -2.13399041e-03
      -1.46646738e-01 3.07366475e-02 3.16466726e-02 3.31831016e-02 0.
      -9.55977440e-02 -1.32836755e-02 -1.05990805e-02 1.33872023e-02
      -5.68954170e-01 -1.23875160e-02 -7.20855268e-03 0. -1.27566056e-02
      -4.81675193e-03 2.49153115e-02 -7.37834116e-03 7.41052106e-02
      8.96152854e-03 -1.28530841e-02 3.26797389e-03 -4.39378433e-03
      -3.26797389e-03 -3.26797389e-03 -3.26797389e-03 -2.90964581e-02
      -4.76660766e-03 -1.24777518e-02 0. -1.49801103e-02 1.90766919e-02
      2.81342585e-03 6.28517121e-02 -6.80263862e-02 -4.11036704e-03
      -7.80875445e-04 0. 1.22295022e-02 -5.90059115e-03 6.53594779e-03
      3.26797389e-03 3.74442376e-02 0. 2.42558075e-03 -9.80392192e-03
      -1.63398702e-02 0. 3.26797389e-03 0. -1.53738791e-02
      1.04054380e-02 1.26315542e-02 0. 2.03949260e-03 0. 0.
      -3.26797389e-03 -6.81936461e-03 -3.63892619e-03 -1.86471436e-02
      -6.53594779e-03 -7.90370554e-02 4.70891632e-02 4.80807200e-02
      6.58777601e-04 -2.44027019e-01 -1.51151102e-02 7.58711398e-02
      -3.55139095e-03 -1.36712834e-01 -4.36094701e-02 1.42319500e-02
      -1.56992208e-02 4.25031275e-01 -6.88999612e-03 2.28319019e-02
      -3.26797389e-03 5.04768752e-02 8.78247712e-03 1.92481782e-02
      -1.11195641e-02 -7.17753405e-03 5.39938062e-02 2.00995766e-02
      -7.31682312e-03 1.43293971e-02 -8.42393260e-04 -3.26797389e-03
      -8.42393260e-04 1.42157767e-02 -9.16856527e-03 3.26797389e-03
      -6.53594779e-03 6.49674758e-02 -5.11102472e-03 1.13272741e-02
      1.96078438e-02 6.46369159e-02 2.03993246e-02 3.98329467e-01
      -1.53849588e-03 9.42472890e-02 -1.41755845e-02 -6.94353366e-03
      -1.58808175e-02 1.46742821e-01 0. 8.45017508e-02 -3.26797389e-03
      2.72954591e-02 -8.92728381e-03 9.02304612e-03 -2.78228670e-02
      -8.35043862e-02 6.48863554e-01 -7.20873848e-02 4.03616130e-02
      -5.30370809e-02 1.93244275e-02 1.27826156e-02 2.06766017e-02
      1.71842337e-01 2.78585255e-01 1.43036498e-02 2.81138383e-02
      -1.79761231e-01 -2.77512502e-02 1.10210486e-01 -3.28013971e-02
      2.33958155e-01 -1.31213814e-01 8.08799174e-03 -2.95647457e-02
      9.98130720e-03 -2.92100072e-01 -1.14452410e-02 -8.28060061e-02
      9.19106156e-02 -5.55755608e-02 8.96152854e-03 -1.80246551e-02
      -8.42393260e-04 -4.14813682e-02 -1.69919915e-02 3.56620923e-02
      5.22123158e-01 2.01139785e-02 -2.72302292e-02 2.43994538e-02
      -4.09455448e-02 -2.21914370e-02 3.26797389e-03 -1.55830374e-02
      -5.22742281e-03 5.06657958e-02 -6.11080416e-03 -1.30718956e-02
      2.07936484e-03 -3.29841264e-02 4.04242659e-03 8.61342132e-01
      2.73142546e-01 7.94136059e-03 2.43723430e-02 1.87654495e-02
      -1.53401829e-02 1.84437595e-02 -2.95266742e-03 9.17140115e-03
      6.82527060e-03 -9.80392192e-03 0. -6.53594779e-03 3.26797389e-03
      -1.27565889e-02 -3.26797389e-03 8.68561212e-03 -4.32952829e-02
      7.01594427e-02 -2.68132966e-02 -8.68558709e-04 2.78966385e-03
      4.78483588e-02 -2.58359383e-03 -1.27650313e-02 -1.69829503e-02
      -2.77884156e-01 -2.07864176e-02 -2.16837078e-02 -2.81645451e-02
      -7.69091666e-01 -3.74329723e-02 2.32310966e-01 -8.15666318e-02
      1.34483606e-01 9.62165277e-03 2.13065208e-03 -3.19090970e-02
      -8.33080485e-02 -8.42393260e-04 -1.23875160e-02 -3.98393422e-02
      -2.04114951e-02 -3.26797389e-03 3.26797389e-03 3.26797389e-03
      -5.85055463e-02 -6.22064108e-03 -4.65568854e-04 -5.65436389e-03
      -2.79965978e-02 -6.53594779e-03 -3.26797389e-03 -3.26797389e-03
      -1.30718956e-02 0. -6.53594779e-03 -2.61437912e-02 -3.80137078e-02
      0. 0. 2.42558075e-03 -3.33758406e-02 -1.50391553e-03
      -1.79627649e-02 -3.62627059e-02 4.13768589e-02 1.69631299e-02
      -1.56554896e-02 1.07518975e-02 -9.00408719e-03 -1.30718956e-02
      9.05850343e-03 -3.59477140e-02 -6.81936461e-03 0. 0.
      -9.80392192e-03 -9.16856527e-03 3.26797389e-03 3.26797389e-03
      3.28587578e-03 2.94929564e-01 1.48409198e-03 8.18065275e-03
      9.87296808e-04 -1.05322013e-02 -3.26797389e-03 -4.35053138e-03
      -1.78446881e-02 -4.32152808e-01 -2.40602661e-02 3.69816879e-03
      -3.29622030e-02 -4.34037209e-01 -2.97017060e-02 -3.64504904e-02
      -7.75594860e-02 1.03135547e-03 7.78463259e-02 -1.96078438e-02
      -9.99670997e-02 -4.50672545e-02 -3.53487507e-02 -6.21060561e-03
      -5.48778176e-01 -1.43546304e-02 8.18065275e-03 0. -9.58926510e-03
      2.22088099e-02 2.38262527e-02 1.64470519e-03 6.61708862e-02
      -7.37834116e-03 -3.26797389e-03 -3.26797389e-03 -2.20252499e-02
      -9.80392192e-03 0. -8.22073407e-03 -3.10968962e-02 -2.73102010e-03
      -8.18833336e-03 -3.26797389e-03 -1.50128258e-02 3.07314955e-02
      -5.21151675e-03 1.70242507e-02 -7.32527971e-02 -9.80392192e-03
      -6.81936461e-03 0. 3.26797389e-03 0. -3.26797389e-03
      3.26797389e-03 -1.16167159e-03 -3.26797389e-03 -3.26797389e-03 0.
      9.80392192e-03 6.53594779e-03 -4.11036704e-03 -3.26797389e-03
      1.84778646e-02 -2.83416826e-04 -2.58359383e-03 -3.26797389e-03
      1.98759921e-02 0. 2.24652910e-03 6.53594779e-03 -1.22076925e-02
      -7.52385985e-03 7.66416732e-03 0. -1.35232126e-02 5.70293814e-02
      4.00810875e-02 2.68845856e-02 -1.37024093e-02 1.18092056e-02
      4.24196988e-01 -6.81936461e-03 -7.79641643e-02 1.67387016e-02
      3.57275270e-03 9.21665109e-04 -3.15729618e-01 2.60871556e-03
      -6.31325832e-03 0. 1.02814771e-01 1.39935603e-02 -1.23875160e-02
      -1.32736405e-02 1.10071898e-02 2.47651841e-02 -2.98127290e-02
      -3.26797389e-03 -3.30648618e-03 -3.26797389e-03 0. -1.30718956e-02
      -1.47627937e-02 -1.50330570e-02 4.64963680e-03 3.26797389e-03
      2.25674994e-02 5.51450299e-03 -1.56388618e-03 -1.47289615e-02
      -3.58498283e-02 1.84794649e-01 2.80227542e-01 2.31932830e-02
      -9.02296230e-03 2.88188597e-03 -6.53594779e-03 -1.71503723e-02
      1.75295651e-01 1.58318738e-03 1.52191669e-02 -6.53594779e-03
      -2.90108025e-02 1.22910198e-02 -2.97642918e-03 4.68059219e-02
      3.05679142e-02 3.84214610e-01 -3.31170969e-02 1.57073494e-02
      9.05499160e-02 1.24508534e-02 0. -4.55533067e-04 4.07685786e-02
      3.65010887e-01 -3.50266579e-04 3.21907736e-02 1.22239068e-02
      2.77316738e-02 6.23330697e-02 5.37374942e-03 -1.93866223e-01
      3.84377539e-02 1.30266652e-01 -1.16388820e-01 3.43674719e-02
      -2.34059915e-01 -6.55665174e-02 -4.04459983e-02 1.85538098e-01
      -5.35713583e-02 5.17664850e-03 -2.94263172e-03 -2.25504749e-02
      6.06995746e-02 -8.30478687e-03 1.91951945e-01 -1.71098381e-01
      1.59686729e-01 2.28758175e-02 -4.77174157e-03 1.83512922e-02
      -8.94048065e-03 -9.80392192e-03 -4.07920144e-02 -3.63595405e-04
      1.69187621e-03 2.15165187e-02 9.80392192e-03 -6.22064108e-03
      2.06331551e-01 1.13797607e-03 7.30795264e-01 4.59859043e-01
      -5.85687310e-02 -8.42393260e-04 -3.35931629e-02 2.25094520e-03
      -2.30780430e-03 -6.53594779e-03 -2.13105492e-02 1.87971704e-02
      -3.78502510e-03 0. 0. 3.26797389e-03 -7.37834116e-03
      -3.26797389e-03 8.11913516e-03 4.43807878e-02 7.82912821e-02
      1.22508418e-03 7.39424629e-03 -1.78279020e-02 -5.02103344e-02 0.
      -1.48923472e-02 2.93288589e-03 -1.07290402e-01 -3.80476867e-03
      5.69355441e-03 -8.42393260e-04 -8.20461571e-01 -4.83948411e-03
      2.70252563e-02 7.56838024e-02 6.92816749e-02 -1.84912942e-02
      -1.90619770e-02 -3.78005095e-02 -1.67420149e-01 8.78247712e-03
      -2.86342259e-02 -3.61736901e-02 -3.35271209e-02 -3.26797389e-03
      3.26797389e-03 -3.26797389e-03 8.96152854e-03 0. -6.53594779e-03
      -1.09666120e-02 -1.96078438e-02 -9.80392192e-03 -3.26797389e-03
      3.26797389e-03 -9.80392192e-03 -3.26797389e-03 -3.26797389e-03 0.
      1.55926319e-02 -6.53594779e-03 -6.53594779e-03 0. -2.82424968e-02
      3.26797389e-03 5.17664850e-03 -2.40537655e-02 7.35394284e-02
      -1.31911673e-02 -2.41813902e-02 -4.16632183e-02 -1.12229018e-02 0.
      1.52274827e-02 -1.50622856e-02 6.53594779e-03 -6.53594779e-03
      -3.26797389e-03 -6.22064108e-03 -2.96237529e-03 0. 8.78247712e-03
      1.18924379e-02 2.13381395e-01 -9.74394940e-03 7.24156271e-04
      2.57853847e-02 2.01242808e-02 -6.53594779e-03 -3.08613759e-02
      2.12169848e-02 -6.33551836e-01 -5.29602123e-03 3.90239768e-02
      -1.61168426e-02 1.71323925e-01 -2.29006726e-03 2.65403897e-01
      9.12940428e-02 -4.54262942e-02 1.14105903e-01 -2.37182099e-02
      -5.90461120e-03 1.67892664e-03 -1.41755836e-02 -1.80246569e-02
      1.49991820e-02 0. 1.78055223e-02 0. -1.09297317e-02 3.15306563e-04
      -1.02144480e-03 5.16646774e-03 -1.18600301e-01 1.37562761e-02
      5.17664850e-03 0. 5.69355441e-03 3.26797389e-03 -3.26797389e-03
      -3.26797389e-03 -2.74440739e-02 -4.04884946e-03 -2.10166033e-02
      -6.53594779e-03 -3.72913815e-02 2.42178375e-03 -8.56399536e-03
      2.49339808e-02 -4.23147716e-02 0. 8.31588916e-03 -3.26797389e-03
      -9.21123009e-03 0. -6.53594779e-03 -9.80392192e-03 -9.33509227e-03
      0. 0. 0. 3.26797389e-03 0. -3.26797389e-03 6.35356817e-04
      -3.90831934e-04 3.26797389e-03 0. -3.26797389e-03 6.53594779e-03
      0. -8.42393260e-04 -4.11036704e-03 -1.74126085e-02 6.53594779e-03
      1.41166458e-02 3.26797389e-03 1.20239158e-03 -2.46230476e-02
      3.75537341e-03 -6.72053266e-03 1.21533836e-03 3.35580520e-02
      3.12005937e-01 -2.94263172e-03 -1.12527263e+00 -2.55257525e-02
      3.95235373e-03 1.40413584e-03 -5.00794172e-01 -1.37947882e-02
      2.34671999e-02 0. 2.65602209e-02 3.26797389e-03 9.73084383e-03
      6.35356817e-04 1.79119352e-02 -1.19888037e-02 -1.35929929e-03 0.
      4.45926050e-03 3.26797389e-03 0. 0. -2.41031647e-02
      -4.66157869e-02 -7.90978596e-03 -3.26797389e-03 3.57342288e-02
      1.90271254e-04 1.21273706e-02 3.33297029e-02 -8.74992274e-03
      1.57723293e-01 1.23639002e-01 5.75507246e-03 -2.16485217e-01
      -6.53594779e-03 -2.58284844e-02 -1.30718956e-02 4.91723157e-02
      1.96078438e-02 1.66155621e-02 -3.26797389e-03 -1.46345180e-02
      1.78055223e-02 2.28758175e-02 3.19568478e-02 1.70375496e-01
      1.64941296e-01 -3.01273689e-02 8.97223875e-02 1.48058400e-01
      7.22032785e-03 1.17013464e-02 3.75728272e-02 -1.53220473e-02
      1.12548179e-03 6.91527799e-02 2.56183557e-03 -2.56082118e-02
      1.20036192e-01 4.40723523e-02 9.01746303e-02 4.50555831e-02
      -1.42451182e-01 5.18173799e-02 -7.10730925e-02 2.03595329e-02
      -4.28283244e-01 -2.48328713e-03 -1.06130943e-01 2.62906328e-02
      -5.22305369e-02 4.53868788e-03 -1.39142890e-02 3.26797389e-03
      -7.23622963e-02 -1.18424371e-02 1.90704361e-01 -1.97673917e-01
      1.04469106e-01 -6.92675542e-03 -8.02398007e-03 1.27884792e-02
      -1.65709481e-02 0. 9.47764236e-03 3.26797389e-03 3.59014310e-02
      3.23200686e-04 -1.27565889e-02 -1.63398702e-02 3.34550858e-01
      1.07360650e-02 6.98585689e-01 1.84689045e-01 3.02720591e-02
      -7.94040505e-03 9.71638598e-03 -9.49832331e-03 1.08345859e-02 0.
      -1.64564257e-03 -2.02804734e-03 -6.53594779e-03 -3.26797389e-03 0.
      -3.26797389e-03 -9.48861521e-03 0. -1.27465539e-02 7.74357643e-04
      9.38299522e-02 -3.73354275e-03 -3.26797389e-03 -3.26797389e-03
      -2.10717022e-02 0. -2.92419773e-02 2.48709857e-03 -6.31804541e-02
      -3.26797389e-03 -2.40385067e-02 2.20644777e-03 -4.35648352e-01
      2.45330110e-03 1.08254023e-01 -1.19845085e-01 5.42954095e-02
      2.24202834e-02 5.73294470e-03 -4.88730939e-03 -2.58099705e-01
      -8.42393260e-04 -1.60145275e-02 -3.23731676e-02 -1.98095888e-02 0.
      3.26797389e-03 3.26797389e-03 -3.85795766e-03 -3.26797389e-03
      -6.31746603e-03 2.81244051e-03 2.73645157e-03 -3.26797389e-03
      3.26797389e-03 -8.42393260e-04 3.26797389e-03 -6.53594779e-03 0.
      -3.26797389e-03 -4.97890413e-02 0. 3.26797389e-03 3.26797389e-03
      2.34160805e-03 -6.53594779e-03 -1.76769495e-02 -1.63245164e-02
      1.22899517e-01 4.58234688e-03 1.28801866e-02 -1.10677499e-02
      -4.07139584e-03 -6.53594779e-03 -1.24409553e-02 2.90830922e-03
      -8.42393260e-04 -3.26797389e-03 -3.26797389e-03 -9.80392192e-03
      6.86128996e-03 -3.26797389e-03 0. 1.73843410e-02 2.37819329e-01
      3.36015522e-02 2.77593788e-02 -4.43778606e-03 6.46310532e-03
      -3.26797389e-03 1.24160051e-02 1.87208448e-02 -5.48745692e-01
      3.90333077e-03 2.50849351e-02 -1.17272593e-03 -3.55120391e-01
      -1.47338798e-02 4.24753055e-02 -5.95993437e-02 -4.03898954e-02
      1.22838924e-02 -1.06463153e-02 -1.14621632e-01 -3.39276008e-02
      -5.68210939e-03 9.80392192e-03 -1.09176293e-01 -2.16051042e-02
      3.26797389e-03 0. 5.82980970e-03 -7.80875445e-04 -9.48861521e-03
      -3.99086624e-03 -4.29455638e-02 1.33872023e-02 -3.17290761e-02 0.
      -8.86637345e-03 0. 0. 0. 1.48518374e-02 -9.80392192e-03
      -1.20960791e-02 -6.53594779e-03 -1.01530254e-02 -6.18400797e-03
      8.19694065e-03 7.28297792e-03 -9.34819505e-02 0. 1.77994184e-03 0.
      6.57787314e-03 -3.26797389e-03 0. 0. 1.23067396e-02 0.
      3.26797389e-03 0. -9.80392192e-03 0. 0. 3.26797389e-03
      -1.81826688e-02 2.28758175e-02 -2.04114951e-02 0. 5.75507246e-03
      -3.26797389e-03 -3.26797389e-03 0. -3.15618701e-02 -1.44838449e-02
      -9.00376774e-03 0. -4.52667139e-02 5.47269806e-02 3.51053178e-02
      1.65096577e-02 -2.40267411e-01 -3.59414611e-03 1.00330167e-01
      -9.80392192e-03 -6.56921923e-01 1.24475667e-02 -2.40005292e-02
      3.59331607e-03 -1.29859641e-01 1.73316896e-02 1.15679801e-02 0.
      5.99389672e-02 -4.93321242e-03 -1.75321102e-02 7.53501430e-03
      -1.47841424e-01 1.48176895e-02 -9.57348384e-03 0. -1.57514252e-02
      0. -8.42393260e-04 -3.97411222e-03 5.25462162e-03 -2.85316501e-02
      -2.26828735e-03 -3.26797389e-03 5.25204279e-02 7.63500016e-03
      1.79823764e-04 -7.37834116e-03 -3.78042925e-03 5.24379089e-02
      1.67092890e-01 2.48709833e-03 -1.10791467e-01 1.34277800e-02
      -3.27014960e-02 1.43121155e-02 1.53628424e-01 1.14486273e-02
      1.22910207e-02 -2.02804734e-03 -1.64539611e-03 -1.63398702e-02
      1.81208290e-02 -9.04634688e-03 7.86828622e-02 3.54005069e-01
      5.38201272e-01 1.50238415e-02 1.72341451e-01 0. 8.44138209e-03
      1.58743002e-02 1.14305332e-01 -7.29630962e-02 1.90256208e-01
      -2.31146417e-03 7.43085099e-03 1.37983203e-01 1.16947681e-01
      6.97222203e-02 2.68978804e-01 -2.93039620e-01 -9.70069841e-02
      1.13407392e-02 -4.81154844e-02 -2.87962914e-01 -5.33798076e-02
      -2.17878073e-02 -5.76340556e-02 -8.02398007e-03 5.16539905e-03
      -2.46566208e-03 -1.23875160e-02 4.14967015e-02 5.42506948e-02
      -3.65275666e-02 4.12291288e-01 5.53352088e-02 -2.18743682e-02
      1.27227912e-02 -1.40044128e-03 6.35356817e-04 9.80392192e-03
      -6.61717262e-03 4.13183216e-03 -2.84042004e-02 -2.84344517e-03
      -7.37834116e-03 -8.10963660e-03 -1.32026255e-01 7.80243287e-03
      6.20095074e-01 3.99008244e-01 4.67228740e-02 0. -4.28941892e-03
      6.53594779e-03 -5.14557166e-03 0. -1.01571938e-03 4.76098532e-04
      -1.30718956e-02 0. 0. 0. -1.02144480e-03 3.26797389e-03
      5.51450299e-03 3.72673087e-02 1.42824855e-02 -4.59126234e-02
      8.15153588e-03 1.95740461e-02 2.16206219e-02 0. 8.36288743e-03
      -3.21413646e-03 -2.29356393e-01 -1.24365389e-02 0. -8.80423468e-03
      -2.55546868e-01 7.77587434e-03 8.13947991e-03 6.83361739e-02
      -2.56842613e-01 8.83989676e-04 6.44149305e-03 3.43591683e-02
      -1.40934870e-01 3.26797389e-03 -1.90249253e-02 1.99690321e-03
      -5.48711754e-02 -2.95266742e-03 -3.26797389e-03 0. -4.73839976e-02
      0. 1.20535707e-02 1.60085298e-02 -2.97606410e-03 8.96152854e-03 0.
      3.26797389e-03 -8.42393260e-04 3.90333077e-03 -6.53594779e-03
      -3.26797389e-03 -7.36034615e-03 -4.28941892e-03 0. -4.11036704e-03
      -5.44638326e-03 6.53594779e-03 3.15306563e-04 3.31532545e-02
      -4.84802313e-02 1.52098900e-02 2.43176445e-02 6.52939081e-03
      -2.49249414e-02 -8.42393260e-04 1.08029880e-02 9.31463670e-03
      -9.80392192e-03 0. 0. -3.26797389e-03 6.53594779e-03 0.
      5.51450299e-03 9.80392192e-03 1.03781193e-01 9.02304612e-03
      5.83203509e-03 5.64007275e-03 -1.83961261e-02 -3.26797389e-03
      5.67043712e-03 -5.95161051e-04 7.89437070e-02 1.08534296e-03
      -3.15403491e-02 -7.92914350e-03 -5.70181727e-01 1.63398702e-02
      9.06297378e-03 3.03530768e-02 -1.47150643e-02 -8.43392387e-02
      -1.30718956e-02 -2.90875196e-01 -2.95697786e-02 -5.70572391e-02
      5.69355441e-03 -7.50645638e-01 -4.11036704e-03 4.88356221e-03
      -3.26797389e-03 -8.42393260e-04 1.22295022e-02 7.17130443e-03
      -7.37834116e-03 1.96309462e-01 -4.92035924e-03 -1.76866557e-02
      -6.53594779e-03 -1.63398702e-02 0. -5.27086668e-04 -8.42393260e-04
      2.17552986e-02 -1.40933404e-02 8.31588916e-03 -3.26797389e-03
      -1.19284643e-02 2.38589998e-02 1.52849220e-03 4.26449813e-02
      5.41538280e-03 -6.53594779e-03 -3.26797389e-03 -3.26797389e-03
      -3.25372294e-02 1.30718956e-02 -3.26797389e-03 6.53594779e-03
      -3.76182459e-02 3.26797389e-03 0. 0. 0. 3.26797389e-03 0.
      6.53594779e-03 -6.84380007e-04 3.00161657e-03 4.97419713e-03 0.
      -1.28758615e-02 3.26797389e-03 9.02304612e-03 -8.42393260e-04
      -2.13124696e-02 -6.53594779e-03 -1.66232865e-02 -6.22064108e-03
      -1.08492278e-01 5.05356826e-02 -1.69996626e-03 -7.84080941e-03
      -2.55734891e-01 4.31000032e-02 1.68072626e-01 -8.33826791e-03
      1.46833479e-01 -1.93551853e-02 1.56967882e-02 8.37986451e-03
      1.36157319e-01 1.15838638e-02 -1.84326887e-03 -3.26797389e-03
      5.57627901e-02 -1.59879290e-02 2.87819002e-02 -1.39142890e-02
      9.76598337e-02 3.55880484e-02 -2.60321181e-02 3.26797389e-03
      -3.26797389e-03 0. -3.26797389e-03 -6.53594779e-03 -5.15436009e-03
      2.76403930e-02 -1.21586686e-02 0. 1.60764717e-02 1.78364720e-02
      2.12596022e-02 1.88269671e-02 1.08356059e-01 3.74204852e-02
      5.62682748e-01 -1.11830945e-03 -5.44982664e-02 -9.24399123e-03
      -7.89848715e-03 -7.53352139e-03 3.53365019e-02 6.53594779e-03
      9.45992488e-03 6.53594779e-03 8.89394432e-03 1.91422738e-02
      -5.73363574e-03 -2.42537148e-02 -8.13179016e-02 -7.74926394e-02
      4.53997314e-01 3.86144221e-02 -1.10466577e-01 5.05256187e-03
      3.48752439e-02 3.25187519e-02 4.58175875e-02 -2.12117419e-01
      1.25095695e-01 7.15727045e-04 -8.79079700e-02 -4.61954959e-02
      8.15017521e-02 -1.48424566e-01 5.63454092e-01 -2.11100385e-01
      5.65799363e-02 1.70894284e-02 7.08022118e-02 -3.33896577e-01
      -2.01866012e-02 8.37280303e-02 1.93878748e-02 -6.18125945e-02
      -1.27565889e-02 -3.26797389e-03 -2.58359383e-03 -6.50006309e-02
      -1.46951638e-02 8.34750235e-02 8.12137663e-01 3.81121971e-02
      -1.78867243e-02 -1.89724863e-02 -2.45862026e-02 -1.26095777e-02
      -3.26797389e-03 1.25414999e-02 4.63220552e-02 7.30593130e-02
      2.16924902e-02 -1.44413756e-02 -2.21914370e-02 1.17940761e-01
      1.11038834e-02 8.82039011e-01 5.32982469e-01 -1.67893097e-02
      -8.86637345e-03 9.71696712e-03 -4.04884946e-03 -1.74262896e-02 0.
      -2.37182099e-02 1.80754121e-02 -4.04884946e-03 -3.26797389e-03
      -5.29602123e-03 -4.11036704e-03 -2.66708788e-02 6.53594779e-03
      -1.86081566e-02 2.33604684e-02 1.07255146e-01 -5.29602123e-03
      -4.75600595e-03 8.11913516e-03 -2.30754185e-02 0. -9.54684336e-03
      9.02304612e-03 -2.12872088e-01 -2.82941461e-02 -2.61437912e-02
      1.40413584e-03 -3.34489703e-01 6.30613125e-04 -7.56755006e-03
      8.70405883e-03 -8.24012831e-02 -1.98846962e-02 -7.37499893e-02
      -3.66584808e-02 -1.01629280e-01 0. -8.26686528e-03 -7.30353408e-04
      -1.96870659e-02 3.26797389e-03 0. -3.26797389e-03 -3.95784192e-02
      0. 0. -1.13665443e-02 -2.11675838e-02 0. 0. 0. -1.44530237e-02 0.
      -3.26797389e-03 -3.26797389e-03 -2.79370733e-02 -2.58359383e-03
      -6.53594779e-03 6.53594779e-03 -3.07731200e-02 3.26797389e-03
      1.88684615e-03 3.15306563e-04 -4.94416337e-03 1.08038103e-02
      -1.02144480e-03 -1.09833796e-02 -2.71500577e-03 -6.53594779e-03
      4.26766044e-03 -3.26797389e-03 0. 3.26797389e-03 3.26797389e-03
      -6.53594779e-03 -1.83666078e-03 0. 3.54306623e-02 1.75690092e-02
      4.30654138e-02 -5.74962352e-04 3.32354940e-02 -2.83416826e-04
      -1.35498689e-02 0. 8.18065275e-03 2.48580463e-02 -6.03549480e-01
      -8.90153367e-03 4.90449816e-02 -1.98374223e-02 -2.62325197e-01
      3.68145225e-03 1.19914979e-01 6.41091019e-02 -2.78406832e-02
      1.01468511e-01 -1.30718956e-02 -1.63580731e-01 -3.97849455e-02
      -5.15251793e-02 0. -1.56737745e+00 -1.96078438e-02 -6.53594779e-03
      0. -3.26797389e-03 6.25253096e-03 -2.41257958e-02 -1.30718956e-02
      4.31295276e-01 -1.30718956e-02 -9.46737453e-03 0. -7.84390979e-03
      -6.53594779e-03 -3.26797389e-03 -8.42393260e-04 -2.69026067e-02
      -8.42393260e-04 -1.44961034e-03 3.26797389e-03 3.15306563e-04
      -1.80246569e-02 9.40295868e-03 3.62008857e-03 5.64077646e-02 0.
      3.26797413e-03 0. -1.46951638e-02 -7.37834116e-03 -1.03310086e-02
      -1.12919537e-02 -1.57045126e-02 0. -6.53594779e-03 0.
      -4.11036704e-03 -8.42393260e-04 0. -6.53594779e-03 2.35153176e-03
      -6.74298406e-03 -6.22064108e-03 -3.26797389e-03 -4.35847277e-03
      3.26797389e-03 0. 0. 1.03918351e-02 -2.46781372e-02 2.71749054e-03
      -4.95276041e-03 -1.95211302e-02 2.64957305e-02 -6.42767688e-03
      -1.06670409e-02 -8.69647339e-02 -2.79431213e-02 -3.55386641e-03
      -3.97411222e-03 -6.84625924e-01 -2.18414664e-02 -4.07154411e-02
      -1.86780747e-02 4.12822515e-01 -2.97808386e-02 2.17500068e-02
      -3.26797389e-03 2.70113954e-03 -1.20722093e-02 3.43859605e-02
      2.14216416e-03 1.26296699e-01 -1.49357338e-02 -7.55739305e-03 0.
      -5.64299291e-03 -6.53594779e-03 -6.53594779e-03 -3.26797389e-03
      -3.97859234e-03 2.94117648e-02 -1.15315337e-02 -3.26797389e-03
      -1.40922714e-03 -8.27448815e-03 1.79927479e-02 5.51450299e-03
      1.33295599e-02 9.98449549e-02 6.85539663e-01 1.22910198e-02
      -5.53141385e-02 7.58496986e-04 -6.22064108e-03 -6.21060561e-03
      -4.26617786e-02 -1.18319690e-02 1.81290470e-02 -7.37834116e-03
      -2.82376516e-03 1.26063265e-02 1.99616843e-04 2.94117648e-02
      5.23880310e-02 5.40537894e-01 3.83379132e-01 1.05110591e-03
      -4.02486138e-03 -1.39528010e-02 -5.18897898e-04 -1.05440579e-02
      1.28074214e-02 1.16666749e-01 -2.98390407e-02 -2.11064778e-02
      -1.17204711e-01 8.38865116e-02 -1.70641392e-02 3.34282517e-02
      -3.04014236e-01 -1.98027715e-01 1.89460739e-02 -6.40342608e-02
      -6.39195088e-03 -1.58155724e-01 -2.63940841e-02 1.15341321e-02
      2.90858448e-01 -6.10985830e-02 -2.09834352e-02 -8.22073407e-03
      -1.49357338e-02 8.81047174e-02 -2.94765793e-02 1.10077858e-01
      3.70640278e-01 6.90629259e-02 1.26892105e-02 4.29932913e-03
      -5.90059115e-03 -3.87669951e-02 0. -2.80674454e-02 1.38844810e-02
      4.10943851e-02 1.35381753e-02 -3.26797389e-03 -3.26797389e-03
      1.91937298e-01 2.81290300e-02 3.48757952e-01 3.71592849e-01
      -2.49981135e-02 6.67367131e-03 -6.14342019e-02 5.69355441e-03
      -3.55484076e-02 -8.42393260e-04 -2.58184485e-02 -1.30718956e-02
      -3.26797389e-03 0. -3.26797389e-03 -3.26797389e-03 -5.13181183e-03
      -6.53594779e-03 3.26797389e-03 -2.15186980e-02 1.01182066e-01
      -5.89529891e-03 7.29444483e-03 -1.63398702e-02 -5.10805435e-02
      -3.26797389e-03 3.04697221e-03 -1.34089608e-02 3.58613729e-02
      -1.01530254e-02 0. 7.62444967e-03 -5.89076102e-01 -1.39142890e-02
      -2.31568158e-01 -8.66483152e-02 -9.54773352e-02 -1.17523065e-02
      -5.68845868e-02 -7.41789639e-02 -1.55226082e-01 -1.69215333e-02
      4.05673264e-03 -3.66897136e-02 1.21909901e-02 0. 0. 3.26797389e-03
      -1.28095364e-02 -3.26797389e-03 -6.53594779e-03 -2.98172096e-03
      -4.13987832e-03 0. 3.26797389e-03 -6.53594779e-03 -6.53594779e-03
      0. 6.53594779e-03 -3.26797389e-03 -1.79915503e-02 -9.80392192e-03
      5.04791550e-03 3.26797389e-03 -1.32355001e-02 -4.77188965e-03
      4.59501706e-03 -1.05021298e-02 8.00732151e-02 1.68067962e-02
      5.51450299e-03 6.01889659e-03 -3.42726484e-02 -9.80392192e-03
      1.11790253e-02 -1.00873383e-02 -7.80875445e-04 -2.95266742e-03
      6.53594779e-03 -3.26797389e-03 4.70305840e-03 0. -1.97658557e-02
      3.22553748e-03 3.93398821e-01 -1.08253667e-02 2.78463215e-02
      2.16247817e-03 -1.79119670e-04 -3.26797389e-03 -6.85720064e-04
      3.21046030e-03 -5.08641779e-01 -3.38817984e-02 1.55747132e-02
      1.32262893e-03 -3.02010387e-01 -7.89445825e-04 -4.73495573e-03
      1.46671024e-03 -3.97999249e-02 1.14900582e-01 0. 1.32501364e-01
      -1.99572761e-02 -7.97266606e-04 3.26797389e-03 -1.81257457e-01
      -6.53594779e-03 3.59331607e-03 0. -1.39142890e-02 -1.96078438e-02
      7.48440996e-03 1.05933677e-02 -1.33833811e-01 -1.51486397e-02
      -1.39092440e-02 -3.26797389e-03 6.95659034e-03 3.26797389e-03 0.
      3.26797389e-03 -3.10965516e-02 -1.24365389e-02 4.97206696e-04
      -3.26797389e-03 -4.44069924e-03 7.67380837e-03 -5.67211816e-03
      -7.27909268e-04 -3.36596295e-02 -7.37834116e-03 -1.48803205e-03 0.
      -4.11036704e-03 9.80392192e-03 -4.11036704e-03 -3.26797389e-03
      -2.87284851e-02 0. -3.26797389e-03 -3.26797389e-03 -9.80392192e-03
      -6.53594779e-03 6.53594779e-03 -3.26797389e-03 2.17853189e-02
      5.69355441e-03 -9.80392192e-03 0. -2.21629776e-02 6.53594779e-03
      3.26797389e-03 -3.26797389e-03 3.28207798e-02 -2.49759899e-03
      -1.11830945e-03 6.53594779e-03 -1.84256081e-02 -4.38964479e-02
      -1.74521245e-02 2.10110564e-02 -6.63314462e-02 7.97399580e-02
      4.65852827e-01 -1.63398702e-02 -7.08467662e-01 1.55548262e-03
      -3.03191715e-03 -9.14493110e-03 -2.24410549e-01 6.73953304e-03
      3.36859003e-02 3.26797389e-03 -5.60553633e-02 2.42558075e-03
      1.12532116e-02 -1.24312472e-02 -1.03300214e-01 -2.95763630e-02
      -1.25039592e-02 0. -7.05299899e-03 0. 0. -3.26797389e-03
      -1.97996534e-02 1.15942722e-02 -9.36779100e-03 3.26797389e-03
      1.84294172e-02 -1.25433765e-02 -2.79583670e-02 3.66320945e-02
      -1.06430270e-01 1.88583523e-01 7.87504017e-01 1.32845342e-02
      -1.85162574e-01 1.77994184e-03 -1.18321134e-02 1.20504508e-02
      5.77407070e-02 8.96152854e-03 -3.29035148e-03 -3.26797389e-03
      -2.16200319e-03 -6.56820368e-03 4.03530849e-03 1.22910207e-02
      9.12738833e-05 3.98602426e-01 5.29204607e-01 2.83474736e-02
      1.08869649e-01 1.35994423e-02 -1.16834184e-03 -1.84825435e-02
      -3.18552814e-02 3.73597741e-02 9.50168371e-02 -1.05363680e-02
      -1.87786333e-02 6.85850950e-03 5.69334254e-02 2.22062669e-03
      -3.80029619e-01 -1.90202355e-01 -2.15498675e-02 -6.34075776e-02
      8.36679339e-02 -3.65617663e-01 -1.81421898e-02 2.79160496e-02
      6.90624267e-02 -4.30527553e-02 -1.96078438e-02 0. 0.
      1.79129187e-02 -3.43626924e-03 6.57636598e-02 -1.26880631e-01
      3.87522834e-03 3.85604687e-02 -6.41433056e-03 2.16746517e-02
      1.64562296e-02 -9.80392192e-03 2.23445501e-02 2.38149650e-02
      -2.50579920e-02 1.48518374e-02 -2.26828735e-03 -1.79077638e-03
      5.20166159e-02 -1.63553469e-02 7.84989297e-01 5.80920160e-01
      -9.14037321e-03 1.28483986e-02 -7.86129292e-03 1.16334269e-02
      2.55960952e-02 -4.11036704e-03 -1.41902054e-02 -1.21111963e-02
      -2.94117648e-02 -4.11036704e-03 -6.53594779e-03 -3.26797389e-03
      -5.13181183e-03 0. -9.48861521e-03 1.00972236e-03 3.88714634e-02
      -9.90496017e-04 4.23396472e-03 1.11182947e-02 -3.72449197e-02
      -3.26797389e-03 -2.26199534e-02 -9.51201189e-03 -1.70804605e-01
      1.76669136e-02 -1.63398702e-02 -4.01419355e-03 -3.35232824e-01
      -2.95620281e-02 1.23724774e-01 -4.74343784e-02 -1.40319794e-01
      2.34018196e-03 -1.17812240e-02 -9.07445140e-03 -2.54486412e-01
      -1.63398702e-02 -1.69650055e-02 -6.38659252e-03 -3.56223695e-02
      9.80392192e-03 -1.39142890e-02 -3.26797389e-03 -3.26733291e-02
      -9.80392192e-03 -5.83618181e-03 1.61558844e-03 -3.01926583e-02
      5.51450299e-03 6.18684385e-03 -9.80392192e-03 -2.63261702e-03
      3.26797389e-03 -6.53594779e-03 -4.11036704e-03 -1.37473419e-02
      -6.53594779e-03 -8.42393260e-04 -8.42393260e-04 -1.44530237e-02
      -7.55739259e-03 -2.43379325e-02 -1.24565437e-02 1.21772185e-01
      2.45441105e-02 -9.16856527e-03 -2.30680462e-02 -5.65901399e-02
      3.59331607e-03 -9.00396518e-03 3.26058338e-03 -8.50415137e-03
      2.98455707e-03 1.58318738e-03 0. 6.53594825e-03 0. 2.18543727e-02
      -3.96407675e-03 1.55636415e-01 1.51597420e-02 -7.33960001e-03
      -7.38862297e-03 -2.18062159e-02 9.80392192e-03 1.11831063e-02
      5.51296165e-04 -3.59477550e-01 -2.28758175e-02 -2.21914370e-02
      -4.44069924e-03 -5.41365325e-01 -1.97228435e-02 3.88938151e-02
      -1.13679757e-02 -7.21258223e-02 7.40228519e-02 -7.90542737e-03
      -2.80805886e-01 -3.02147679e-02 -4.68923710e-03 -2.97606434e-03
      -8.72709334e-01 3.59331630e-03 1.07414704e-02 -3.26797389e-03 0.
      3.15306563e-04 -5.85156772e-03 -1.63398702e-02 1.35148272e-01
      -1.63398702e-02 -2.29633525e-02 -6.53594779e-03 3.26797389e-03
      -3.26797389e-03 -4.11036704e-03 -6.53594779e-03 -1.72361489e-02
      -3.26797389e-03 -5.91268716e-03 -3.26797389e-03 -9.11954138e-03
      3.26573625e-02 -1.11410003e-02 6.15644194e-02 6.22911528e-02
      -9.47857928e-03 -1.63398702e-02 -4.11036704e-03 1.46500925e-02 0.
      0. 0. 5.68183186e-03 0. -8.42393260e-04 -3.26797389e-03
      2.42558098e-03 0. -3.26797389e-03 -1.30718956e-02 -8.64623860e-03
      6.85125450e-03 1.00602107e-02 3.26797389e-03 -6.77255774e-03
      3.26797389e-03 3.26797389e-03 -3.26797389e-03 -2.25605108e-02
      -9.16856527e-03 1.06462976e-02 -6.53594779e-03 -6.61531389e-02
      2.95429528e-02 1.62482243e-02 -9.83793475e-03 -2.90087104e-01
      -1.73465454e-03 2.76628315e-01 -1.14887077e-02 -7.42066801e-01
      -2.26959940e-02 -7.60273682e-03 -5.20890439e-03 -1.89223200e-01
      -1.96078438e-02 8.07089452e-03 0. 3.75623559e-03 1.63398702e-02
      -5.12531446e-03 -6.81936461e-03 1.02725595e-01 -3.02358791e-02
      2.06960980e-02 0. -5.44420490e-03 -3.26797389e-03 -3.26797389e-03
      -1.30718956e-02 -2.06519812e-02 -1.23076728e-02 -1.80246551e-02
      -1.60245635e-02 2.12914441e-02 1.67328879e-04 -1.10051723e-03
      2.28758175e-02 1.35955885e-01 1.42771587e-01 6.84595585e-01
      8.78247712e-03 3.49177539e-01 -3.92156877e-02 -2.09127050e-02
      1.81198120e-02 1.12465143e-01 0. 1.26634296e-02 3.26797389e-03
      -2.66651441e-05 9.65840276e-03 -6.83217356e-03 1.19025167e-02
      7.27184117e-02 2.76848197e-01 7.55175233e-01 7.37066055e-03
      2.08242103e-01 -4.04884946e-03 5.23651019e-03 -9.76199657e-03
      1.00120105e-01 1.72077343e-02 8.70755315e-03 6.07037870e-03
      9.04308856e-02 4.19047400e-02 3.63225117e-02 -9.49700251e-02
      1.11103497e-01 -2.09824443e-01 -1.00549772e-01 1.08314203e-02
      -2.32290942e-02 -1.33009806e-01 -4.26586065e-03 -4.57956195e-02
      4.77408282e-02 1.94060989e-02 3.80898789e-02 -3.26797389e-03
      -6.81936461e-03 -8.98259059e-02 5.21034338e-02 -9.35227647e-02
      3.69922757e-01 7.34091178e-02 -2.60516673e-01 6.85125450e-03
      -2.51199361e-02 6.86102547e-04 -6.53594779e-03 -9.80392192e-03
      -1.13507267e-02 -1.42365517e-02 2.08527036e-02 5.04791550e-03
      9.36357956e-03 2.65328467e-01 1.89081784e-02 7.78284371e-01
      2.40666848e-02 -4.27419394e-02 -7.80875445e-04 0. 2.14216392e-03
      -3.26797366e-03 0. -1.48803205e-03 1.25054903e-02 3.15306563e-04
      -3.30477091e-03 0. 0. 1.30718956e-02 0. -4.25588572e-03
      2.72380132e-02 -5.65988049e-02 -3.83809730e-02 -2.21171323e-03
      7.15649570e-04 -1.98780373e-02 0. -2.13399041e-03 3.15464148e-03
      -1.35789454e-01 9.52652935e-03 -1.35989822e-02 -1.36092640e-02
      3.36456746e-01 -8.30275100e-03 1.16820857e-01 2.38225907e-02
      -1.78246841e-01 -3.27182524e-02 -1.96070271e-03 1.50075778e-02
      -2.90640797e-02 7.47349625e-03 9.09020845e-03 2.38122256e-03
      -2.53411066e-02 -3.26797389e-03 -8.42393260e-04 3.26797389e-03
      -4.21264283e-02 -3.26797389e-03 -1.47697818e-03 -1.34315602e-02
      -1.14271902e-02 -1.61558844e-03 -9.80392192e-03 -2.95266742e-03
      -6.05514226e-03 -7.53635447e-03 0. 0. -1.64255258e-02 0.
      3.26797389e-03 -1.05268145e-02 -1.51831564e-02 -4.11036704e-03
      6.53594779e-03 2.14946885e-02 -1.75250560e-01 -1.47486459e-02
      9.52050462e-03 -8.21114425e-03 1.88684615e-03 3.26797389e-03 0.
      -1.63398702e-02 -2.04502363e-02 0. 0. 0. 5.20779798e-03
      2.24652910e-03 7.17130443e-03 1.21773295e-02 -1.84554860e-01
      -3.52746211e-02 2.03486383e-02 4.74179955e-03 3.58328060e-03 0.
      3.59331607e-03 -8.67994037e-03 -1.97100326e-01 -1.57457255e-02
      -1.25125507e-02 -6.69396110e-03 2.54157662e-01 -8.98372941e-03
      -3.44409570e-02 6.56273961e-02 5.64267539e-05 -9.54915658e-02
      -2.93323454e-02 -1.77026942e-01 -2.99288165e-02 -2.56664474e-02 0.
      -5.42452186e-02 1.87654495e-02 1.66652109e-02 0. 3.26797389e-03
      -1.02594551e-02 -2.19047256e-02 -4.75600595e-03 -3.72487605e-02
      2.17207111e-02 -1.22578479e-02 6.53594779e-03 -1.08978422e-02
      -3.26797389e-03 -7.37834116e-03 0. 7.73332035e-03 -2.83416826e-04
      -4.91234846e-03 0. 0. 7.29698408e-03 6.81936461e-03 9.65840369e-03
      -3.20376419e-02 6.53594779e-03 -2.58359383e-03 0. -2.54594106e-02
      -2.94263172e-03 0. -2.58359383e-03 -1.52837690e-02 -3.26797389e-03
      -8.42393260e-04 3.26797389e-03 -1.32299084e-02 0. -6.53594779e-03
      -3.26797389e-03 -1.28702940e-02 0. -2.32619047e-02 0.
      -4.31740331e-03 0. 3.15306563e-04 -3.26797389e-03 -5.84237743e-03
      -1.79627649e-02 -7.37834116e-03 -1.23875160e-02 -9.88226384e-03
      2.18695085e-02 -1.05653265e-02 -1.48803205e-03 -1.64714456e-01
      -4.13181074e-02 -3.05678546e-01 6.53594779e-03 -5.76021791e-01
      -3.42054144e-02 2.18492448e-02 -1.27391284e-03 2.78300464e-01
      9.80392192e-03 -8.36175214e-03 3.26797389e-03 1.53788533e-02
      -4.25846968e-03 -8.20049271e-03 -9.70876589e-03 -1.55810013e-01
      4.45266366e-02 8.11302382e-03 0. -1.76680286e-03 -3.26797389e-03
      -6.53594779e-03 9.80392192e-03 1.39572062e-02 0. -4.47718389e-02
      0. -9.61015874e-04 -3.70831578e-03 8.03076010e-03 -8.95008259e-03
      1.91176180e-02 1.12962332e-02 2.29538798e-01 -1.71822626e-02
      -1.82545379e-01 -5.13591804e-03 -1.65469050e-02 -1.06463153e-02
      3.81724723e-02 -8.03652103e-04 1.75830405e-02 -3.26797389e-03
      -1.90814771e-02 -4.28941892e-03 -1.01530254e-02 -3.67732793e-02
      -2.12699190e-01 7.46510386e-01 1.30214006e-01 4.14742790e-02
      -2.49479543e-02 1.23490030e-02 9.26187786e-04 1.05624190e-02
      -2.25660135e-03 3.07877272e-01 -1.00710522e-02 -6.10392354e-03
      -2.27252439e-01 3.87837291e-02 1.21817160e-02 2.49314439e-02
      5.11466146e-01 -1.07361846e-01 -3.20535362e-01 -4.16813493e-02
      3.36847326e-04 -1.55336792e-02 -2.01910129e-03 7.21139014e-02
      5.15978038e-01 -4.67520393e-02 1.76934036e-03 -3.26797389e-03
      -8.39978550e-03 1.59803536e-02 1.27227921e-02 -8.63582864e-02
      1.48096949e-01 -2.52865493e-01 -3.69693875e-01 -2.61437912e-02
      3.41563765e-03 -1.51419314e-03 9.45481751e-03 -3.45864259e-02
      -3.23543958e-02 -1.57089867e-02 1.43234208e-02 1.46550834e-02
      -9.47857928e-03 2.50791609e-01 1.99965690e-03 7.25138560e-02
      -1.82885200e-01 -4.49235663e-02 -3.45789231e-02 -1.30718956e-02
      -4.11036704e-03 1.27120130e-02 -3.26797389e-03 -2.51441039e-02
      1.67433303e-02 5.16646774e-03 -9.80392192e-03 0. -6.53594779e-03
      -4.11036704e-03 -3.26797389e-03 1.54974759e-02 3.01525593e-02
      9.12534166e-03 -2.41232850e-02 0. -1.24365389e-02 1.11947637e-02
      0. -1.16368113e-02 1.89668853e-02 2.37393491e-02 7.90386985e-04
      -1.48803205e-03 -9.48861521e-03 4.79747742e-01 -3.58518818e-03
      -1.36568353e-01 -3.66432853e-02 -1.34998783e-02 -3.55957747e-02
      2.10429281e-02 -9.38234758e-03 1.40617013e-01 -1.20722093e-02
      3.89858708e-03 8.81342590e-03 -1.96078438e-02 -3.26797389e-03
      -3.26797389e-03 3.26797389e-03 -3.72922570e-02 0. -1.71822626e-02
      -5.20890439e-03 -5.11229672e-02 -9.80392192e-03 0. -3.26797389e-03
      9.45481751e-03 2.48709857e-03 0. 3.26797389e-03 -2.87273843e-02
      -3.26797389e-03 6.53594779e-03 3.26797389e-03 1.02442633e-02 0.
      -2.45606042e-02 -1.30718956e-02 -2.24712323e-02 -2.96369232e-02
      6.53594779e-03 -1.18158627e-02 -6.96747506e-04 0. -1.69506844e-03
      1.58318738e-03 3.26797389e-03 -6.53594779e-03 -3.26797389e-03
      9.80392192e-03 1.50244134e-02 -1.06463153e-02 -5.23568888e-04
      -9.45198163e-03 -3.38217705e-01 -2.02638358e-02 -7.38397706e-03
      -1.20621733e-02 3.04734614e-02 -6.53594779e-03 -6.74298406e-03
      4.41434886e-03 -6.95282876e-01 5.89328445e-03 2.37412192e-02
      1.08777257e-02 7.14597881e-01 -9.17507615e-03 8.48301034e-03
      -4.95476499e-02 -4.81074564e-02 -6.92993551e-02 -2.69861836e-02
      2.60870233e-02 6.84380007e-04 1.03427833e-02 6.53594779e-03
      6.47682190e-01 -9.80392192e-03 -5.20088337e-03 0. 3.26797389e-03
      -3.55139072e-03 0. 7.03315437e-03 7.14165121e-02 -2.78881285e-02
      -3.92864682e-02 -2.28758175e-02 -1.36930114e-02 -6.53594779e-03
      -6.53594779e-03 3.26797389e-03 6.53594825e-03 9.45481751e-03
      -1.06801121e-02 -6.53594779e-03 -9.80392192e-03 1.13398361e-03
      -6.53594779e-03 -1.49831725e-02 3.35770287e-02 -2.28758175e-02
      -1.73613150e-02 -6.22064108e-03 1.40413584e-03 -3.26797389e-03
      6.53594779e-03 -3.26797389e-03 -9.64724831e-03 0. 3.26797389e-03
      -6.53594779e-03 1.96078438e-02 -6.53594779e-03 3.26797389e-03 0.
      -7.00151687e-03 -3.04192696e-02 -2.53413990e-02 -6.53594779e-03
      -5.90059115e-03 3.26797389e-03 0. 3.26797389e-03 -2.58408263e-02
      -1.30718956e-02 1.43121155e-02 -3.26797389e-03 2.73493305e-02
      2.53629163e-02 2.61437912e-02 -1.80232001e-03 -3.42136770e-02
      -6.97167497e-03 -2.39278406e-01 -3.26797389e-03 3.65046076e-02
      -1.19454507e-02 -2.00633761e-02 -1.02290604e-02 1.15938330e+00
      3.59331630e-03 -3.26797389e-03 6.53594779e-03 0. 0. 1.38303926e-02
      -1.56175112e-03 -1.33980751e-01 2.46723532e-03 -4.30772156e-02 0.
      -9.80392192e-03 -9.80392192e-03 -6.53594779e-03 -1.30718956e-02
      -5.89090399e-02 6.53594779e-03 -1.00873383e-02 -4.11036704e-03
      3.59477140e-02 0. -1.63398702e-02 1.62334973e-03 -1.24779820e-01
      -1.07860472e-02 -7.25331679e-02 -6.22064108e-03 -7.70948678e-02
      -5.34477236e-04 -1.82390828e-02 -7.55739259e-03 1.16183832e-01
      -9.80392192e-03 3.78408795e-03 -7.37834116e-03 -2.09237263e-03
      1.30718956e-02 3.73285194e-03 -1.47879153e-01 -4.32338625e-01
      -1.31061047e-01 4.15548325e-01 7.17130443e-03 8.36455300e-02
      -2.37615914e-05 -9.36983339e-03 -1.80246551e-02 5.82551360e-02
      3.99269685e-02 -1.58892013e-02 2.21844614e-02 7.03127161e-02
      -7.21013546e-02 -3.78314443e-02 -1.61159217e-01 1.29866213e-01
      -2.95841604e-01 -3.28673631e-01 -6.00330420e-02 2.74898857e-02
      4.50186841e-02 -2.00139619e-02 5.16090803e-02 3.63374442e-01
      -3.47590782e-02 -1.21343471e-02 -6.53594779e-03 -8.42393260e-04
      6.04401976e-02 -7.13217258e-03 -4.31477055e-02 3.54083814e-02
      -1.50451854e-01 -2.18317881e-01 -2.06263252e-02 -7.98755419e-03
      -6.49402244e-03 -1.96078438e-02 -2.60343440e-02 -1.13982530e-02
      3.48105915e-02 3.78236617e-03 -6.85720064e-04 -8.02398007e-03
      2.49098882e-01 9.35979001e-03 1.77405089e-01 8.64296928e-02
      -4.07824852e-02 -6.15576357e-02 -2.33546719e-02 -4.19602357e-03
      -1.39041580e-02 3.26797389e-03 -1.41977053e-02 4.26704017e-03
      -3.26797389e-03 -8.42393260e-04 -2.95266742e-03 0. -6.88505173e-03
      0. -2.27522198e-02 -9.73263197e-03 3.77622023e-02 -3.15099061e-02
      -5.57524897e-03 9.80392192e-03 -1.23106828e-03 0. -1.99028663e-02
      1.88684615e-03 8.29536989e-02 -2.97921505e-02 -1.63398702e-02
      -2.01583263e-02 -1.53624654e-01 -1.13078374e-02 -2.27049038e-01
      1.01914205e-01 -6.88025635e-03 -2.48646904e-02 9.52050555e-03
      7.54204870e-04 -6.20760582e-02 -2.11117584e-02 -4.77188965e-03
      -2.06721351e-02 7.85094127e-03 0. 0. -3.26797389e-03
      6.53594825e-03 0. 1.77994184e-03 1.99964084e-02 -2.15240512e-02
      -6.53594779e-03 -9.80392192e-03 -6.53594779e-03 5.03203226e-03
      -9.80392192e-03 -1.30718956e-02 0. -2.22884640e-02 -8.42393260e-04
      3.26797389e-03 3.26797389e-03 1.98529977e-02 3.26797389e-03
      -1.53408032e-02 -8.87944549e-03 5.49650900e-02 -1.25936130e-02
      -1.12155331e-02 4.54519363e-03 1.38139483e-02 0. -9.80392192e-03
      -1.29111689e-02 8.96152854e-03 -3.42598720e-03 0. -6.22064108e-03
      -1.44231934e-02 -1.45599283e-02 -1.31342057e-02 -3.05298679e-02
      5.50729334e-02 -3.27135362e-02 -1.30718956e-02 -1.48803205e-03
      -1.22577110e-02 0. 1.18360408e-02 -2.04502363e-02 5.00247061e-01
      -6.23034919e-03 4.70044911e-02 3.69473994e-02 7.55813777e-01
      1.98999047e-03 -1.72850396e-02 -1.76301822e-02 -3.41640622e-03
      6.68411469e-03 5.26672695e-03 2.30502877e-02 2.92537529e-02
      2.64691338e-02 -4.11036704e-03 3.02456737e-01 -1.18011823e-02
      -7.31682312e-03 0. 5.12255169e-03 -2.69911736e-02 6.56752707e-03
      -3.42598720e-03 3.03100459e-02 -3.50796878e-02 -2.85576954e-02
      6.53594779e-03 -1.42518273e-02 0. 0. -3.26797389e-03
      -1.63398702e-02 1.43156378e-02 -6.53594779e-03 0. -1.50391553e-03
      9.80392098e-03 1.15309162e-02 1.06616654e-02 1.11328652e-02
      -6.53594779e-03 0. 0. -9.80392192e-03 -3.26797389e-03
      3.26797389e-03 0. 4.85124923e-02 0. 0. -6.53594779e-03
      7.06231454e-03 -6.53594779e-03 -3.26797389e-03 -6.53594779e-03
      -1.17721250e-02 2.74088723e-03 -1.83218028e-02 -9.46864579e-03
      -1.01896189e-02 0. 9.80392192e-03 3.26797389e-03 4.26766044e-03
      -3.99086624e-03 -1.92354340e-02 -1.63398702e-02 2.26339083e-02
      4.24836613e-02 2.64590979e-02 -2.08158977e-02 -4.75515202e-02
      1.24661550e-02 -3.74132842e-02 -1.30718956e-02 -4.30400670e-01
      -8.04774184e-03 -2.32636631e-02 -9.38888697e-04 7.72425950e-01
      -8.44416209e-03 2.28758175e-02 0. 1.37562761e-02 5.04791550e-03
      -3.14966822e-03 -4.97067953e-03 -1.09317772e-01 -1.37735559e-02
      -2.61774864e-02 0. -1.35956919e-02 0. -6.53594779e-03
      -7.06303446e-03 -3.67561691e-02 2.28559729e-02 -1.06463153e-02
      3.26797389e-03 1.22295022e-02 -4.64910176e-03 -4.73084860e-03
      -1.22276582e-02 -3.85547504e-02 -1.96632043e-01 -3.67866397e-01
      -1.39142890e-02 3.61772835e-01 2.55785300e-03 -1.24670770e-02
      -2.94263172e-03 4.39930446e-02 -9.59465001e-03 -1.31594315e-02
      -3.26797389e-03 6.37793494e-03 -3.26797389e-03 1.44760320e-02
      -1.27381369e-01 -4.33134317e-01 -6.97890967e-02 -1.54983908e-01
      1.43799344e-02 8.71546194e-02 2.27872422e-03 -1.14681423e-02
      -1.06463153e-02 2.76872702e-02 4.17722434e-01 6.33125678e-02
      1.52140595e-02 -4.21500504e-02 1.37228370e-01 7.93669559e-03
      -2.49688074e-01 -2.88361102e-01 -8.90728757e-02 -2.30936363e-01
      -1.23792458e-02 3.12105361e-02 -3.09421588e-02 -3.26797389e-03
      9.39237922e-02 1.44505620e-01 -3.03506535e-02 -1.27465539e-02
      -1.71822626e-02 9.80392192e-03 5.10774041e-03 3.18988636e-02
      -9.88029987e-02 1.70752257e-01 3.53922583e-02 5.02516888e-02
      1.44760311e-02 1.73868351e-02 6.77034166e-03 -1.18319690e-02
      2.01077722e-02 -1.78313311e-02 4.39572111e-02 1.49693210e-02
      -1.39142890e-02 1.19076781e-02 1.07496986e-02 -9.50234104e-03
      3.13616246e-01 6.23397157e-02 -1.65235053e-03 -8.04034527e-03
      -3.21929198e-04 -4.90231541e-05 1.81620587e-02 0. -3.95102575e-02
      9.44425724e-03 -5.38668968e-03 3.26797389e-03 0. -3.26797389e-03
      -7.37834116e-03 0. -2.01248936e-02 0. 1.90379601e-02
      -2.86335256e-02 3.10140429e-03 -1.02048852e-02 2.00676173e-02 0.
      -3.16238850e-02 9.80392192e-03 -2.19790544e-02 -4.06677574e-02
      -8.42393260e-04 -6.22064108e-03 1.68129683e-01 -4.06844169e-03
      -2.22671598e-01 2.15936825e-02 -1.22565739e-01 -1.52828200e-02
      -5.63474558e-03 1.65065099e-02 -1.57702729e-01 8.58908799e-03
      -5.32703649e-04 7.81166041e-03 -1.60245635e-02 6.53594779e-03
      2.42558075e-03 -3.26797389e-03 6.53594779e-03 -3.26797389e-03
      2.54508154e-03 -3.26797389e-03 -1.14271902e-02 6.53594779e-03
      -2.94263172e-03 0. -1.97658557e-02 -1.23875160e-02 3.26797389e-03
      -3.26797389e-03 -1.41748479e-02 -6.53594779e-03 -3.26797389e-03
      3.26797389e-03 1.55227853e-03 -7.37834116e-03 -3.29570030e-03
      -8.10123328e-03 4.48909551e-02 5.18091721e-03 -3.26797389e-03
      1.44175002e-02 -6.63244305e-03 -3.26797389e-03 -8.12047534e-03
      1.69240625e-03 -8.42393260e-04 -2.63261702e-03 0. -9.80392192e-03
      4.95462976e-02 -1.30718956e-02 1.17913634e-03 -5.53688128e-03
      2.01308187e-02 6.57787360e-03 1.51729062e-02 -5.87250397e-04
      9.38221253e-03 -3.26797389e-03 1.23266252e-02 3.95235373e-03
      -3.33185345e-02 -1.50254965e-02 -2.63736071e-03 -5.27086668e-04
      7.14145377e-02 8.53744894e-03 8.39076340e-02 -5.48958592e-02
      -5.31299748e-02 1.42613277e-02 -1.60245635e-02 4.52794917e-02
      -1.34694455e-02 -1.78118963e-02 -3.26797389e-03 2.28393734e-01
      -2.15407535e-02 -2.00633761e-02 0. -5.20890439e-03 -5.03942277e-03
      -6.53594779e-03 5.75507246e-03 1.30474582e-01 7.88812246e-03
      -2.04617959e-02 1.55589944e-02 1.35787101e-02 0. 0. 0.
      9.80392192e-03 -8.42393260e-04 0. 3.26797389e-03 -6.53594779e-03
      3.40161212e-02 -1.13165313e-02 1.98983252e-02 5.21013960e-02
      -9.80392192e-03 -2.95266742e-03 0. 6.84380007e-04 0.
      -3.26797389e-03 0. 8.31589010e-03 3.26797389e-03 3.26797389e-03
      -1.30718956e-02 -1.92925371e-02 0. 0. -1.11830945e-03
      2.12525483e-02 -2.25605108e-02 1.90230310e-02 -3.26797389e-03
      -2.94117648e-02 3.26797389e-03 0. -9.16856527e-03 -2.13399041e-03
      3.26797413e-03 -1.74433726e-03 -1.77093502e-02 4.07178551e-02
      6.02608137e-02 -6.53594732e-03 1.51945008e-02 -3.27252746e-02
      -7.74063775e-03 1.42209781e-02 -1.73613150e-02 -5.67515969e-01
      -1.47179412e-02 -3.08997966e-02 -3.05527216e-03 1.80483475e-01
      -4.33226628e-03 -5.25994226e-03 3.26797389e-03 2.73077637e-02
      -2.28758175e-02 5.02875028e-03 -1.43698221e-02 1.21641785e-01
      9.49531607e-03 -6.32520765e-04 -6.53594779e-03 -2.75389454e-03
      2.48709857e-03 -6.53594779e-03 -1.39142890e-02 1.25677362e-02
      2.38365158e-02 -5.36794716e-04 -3.26797389e-03 1.37260268e-02
      -2.33004168e-02 1.26709323e-02 -1.65469050e-02 -3.72826010e-02
      1.37168225e-02 2.05000684e-01 -1.02144480e-03 1.00154437e-01
      2.37959437e-02 -2.87273843e-02 -2.61437912e-02 -2.06904188e-02
      -7.80875445e-04 -1.76681913e-02 -3.26797389e-03 7.01329159e-03
      -2.33635139e-02 -1.00668697e-02 -6.38631657e-02 6.31288961e-02
      -2.98572809e-01 5.82454503e-01 8.22621339e-04 3.25045958e-02
      -1.32160624e-02 3.60295177e-03 -4.11036704e-03 -2.98812110e-02
      1.46722332e-01 5.28518867e-04 -1.80232024e-03 -1.25814289e-01
      -3.77240181e-02 -5.84711470e-02 4.67047170e-02 -6.31733418e-01</_></support_vectors>
  <uncompressed_sv_total>139</uncompressed_sv_total>
  <uncompressed_support_vectors>
    <_>
      1.63398702e-02 1.63398702e-02 0. 3.26797389e-03 1.63398702e-02 0.
      3.26797389e-03 6.86274543e-02 0. 0. 0. 0. 3.26797389e-03
      3.26797389e-03 2.94117648e-02 1.11111112e-01 1.30718956e-02
      1.30718956e-02 0. 0. 0. 0. 0. 0. 3.26797389e-03 0. 0. 0.
      1.30718956e-02 0. 4.90196086e-02 2.28758175e-02 3.26797389e-03 0.
      0. 0. 0. 0. 0. 0. 0. 0. 0. 0. 0. 0. 0. 3.26797389e-03 0. 0. 0. 0.
      3.26797389e-03 0. 0. 0. 1.30718956e-02 0. 0. 0. 1.63398702e-02 0.
      6.53594779e-03 3.26797389e-03 9.80392192e-03 0. 0. 0.
      3.26797389e-03 0. 3.26797389e-03 0. 0. 0. 0. 0. 0. 0. 0. 0. 0. 0.
      0. 0. 0. 0. 0. 0. 0. 0. 0. 0. 3.26797389e-03 0. 0. 0. 0. 0. 0. 0.
      0. 0. 0. 0. 0. 0. 0. 0. 0. 0. 0. 0. 3.26797389e-03 0. 0. 0. 0. 0.
      3.26797389e-03 0. 9.80392192e-03 0. 3.26797389e-03 0.
      2.94117648e-02 0. 3.26797389e-03 3.26797389e-03 0. 3.26797389e-03
      0. 3.26797403e-02 0. 0. 0. 6.20915033e-02 0. 3.26797389e-03 0. 0.
      0. 0. 0. 3.59477140e-02 3.26797389e-03 0. 0. 0. 0. 0. 0. 0. 0. 0.
      0. 0. 0. 0. 0. 9.80392192e-03 0. 0. 0. 0. 0. 0. 0. 0. 0. 0. 0. 0.
      0. 0. 0. 0. 0. 0. 0. 3.26797389e-03 0. 0. 0. 0. 0. 0. 0.
      3.26797389e-03 0. 0. 0. 1.30718956e-02 0. 6.53594779e-03 0.
      3.26797403e-02 0. 0. 0. 2.94117648e-02 0. 0. 0. 0. 0.
      3.26797389e-03 0. 6.53594779e-03 6.53594779e-03 0. 0. 0. 0. 0. 0.
      0. 0. 0. 0. 0. 0. 0. 3.26797389e-03 3.26797389e-03 3.26797389e-03
      2.28758175e-02 0. 1.96078438e-02 0. 0. 3.26797389e-03
      9.80392192e-03 0. 0. 0. 0. 0. 0. 9.80392192e-03 2.28758175e-02
      2.28758175e-02 1.96078438e-02 0. 3.26797389e-03 0. 0. 0. 0.
      1.63398702e-02 3.26797389e-03 0. 0. 3.26797389e-03 0.
      2.28758175e-02 4.57516350e-02 9.80392192e-03 0. 3.26797389e-03
      3.26797389e-03 1.30718956e-02 0. 1.30718956e-02 4.24836613e-02
      3.26797389e-03 0. 0. 0. 0. 0. 1.30718956e-02 1.63398702e-02 0. 0.
      0. 3.26797389e-03 0. 0. 0. 3.26797389e-03 0. 0. 0. 0.
      3.92156877e-02 0. 4.90196086e-02 4.57516350e-02 0. 0. 0. 0.
      3.26797389e-03 0. 0. 0. 0. 0. 0. 0. 0. 0. 0. 0. 3.26797389e-03 0.
      0. 0. 0. 0. 0. 0. 1.96078438e-02 0. 3.26797389e-03 0.
      7.84313753e-02 0. 6.53594779e-03 9.80392192e-03 0. 0. 0.
      3.26797389e-03 3.26797389e-03 0. 0. 0. 0. 0. 0. 0. 3.26797389e-03
      0. 0. 0. 0. 0. 0. 0. 0. 0. 0. 0. 3.26797389e-03 0. 0. 0. 0. 0. 0.
      0. 0. 0. 0. 0. 0. 0. 0. 3.26797389e-03 0. 0. 0. 0. 6.53594779e-03
      3.26797389e-03 0. 0. 3.26797389e-03 0. 0. 0. 3.26797389e-03 0. 0.
      0. 9.80392192e-03 0. 0. 0. 1.30718956e-02 0. 9.80392192e-03
      9.80392192e-03 0. 0. 0. 2.28758175e-02 0. 0. 0. 7.84313753e-02 0.
      0. 0. 0. 0. 0. 0. 9.80392192e-03 0. 0. 0. 0. 0. 0. 0.
      3.26797389e-03 0. 0. 0. 0. 0. 3.26797389e-03 0. 1.63398702e-02 0.
      0. 0. 3.26797389e-03 0. 0. 0. 0. 0. 0. 0. 0. 0. 0. 0.
      3.26797389e-03 0. 0. 0. 0. 0. 0. 0. 0. 0. 0. 0. 0. 0. 0. 0.
      1.30718956e-02 0. 0. 0. 3.59477140e-02 0. 0. 0. 7.51634017e-02 0.
      0. 0. 3.26797389e-03 0. 3.26797389e-03 0. 2.61437912e-02 0. 0. 0.
      0. 0. 0. 0. 3.26797389e-03 0. 0. 0. 0. 3.26797389e-03 0. 0.
      1.30718956e-02 0. 6.53594779e-03 0. 9.80392192e-03 0. 0. 0.
      9.80392192e-03 0. 0. 0. 0. 0. 0. 3.26797389e-03 9.80392192e-03
      3.26797389e-03 9.80392192e-03 0. 3.26797389e-03 0. 0.
      3.26797389e-03 9.80392192e-03 0. 0. 3.26797389e-03 2.28758175e-02
      3.26797389e-03 9.80392192e-03 2.28758175e-02 9.47712436e-02
      1.96078438e-02 1.63398702e-02 0. 3.26797389e-03 0. 3.26797389e-03
      0. 4.24836613e-02 3.26797389e-03 0. 0. 0. 0. 0. 2.61437912e-02
      9.47712436e-02 1.96078438e-02 3.26797389e-03 3.26797389e-03 0. 0.
      0. 0. 0. 0. 0. 0. 0. 1.30718956e-02 0. 1.04575165e-01
      2.94117648e-02 0. 0. 0. 0. 6.53594779e-03 0. 0. 0. 0. 0. 0. 0. 0.
      0. 0. 0. 0. 0. 0. 0. 0. 0. 0. 0. 0. 0. 0. 0. 3.59477140e-02 0.
      3.26797389e-03 0. 3.26797389e-03 0. 0. 3.26797389e-03 0. 0. 0. 0.
      0. 0. 0. 0. 0. 0. 0. 0. 0. 0. 0. 0. 0. 0. 0. 0. 0. 0. 0. 0. 0. 0.
      0. 0. 0. 3.26797389e-03 0. 3.26797389e-03 0. 0. 0. 0. 0. 0. 0. 0.
      0. 0. 0. 0. 0. 0. 0. 0. 0. 0. 0. 0. 9.80392192e-03 0. 0. 0.
      3.26797389e-03 0. 3.26797389e-03 0. 0. 3.26797389e-03 0.
      1.30718956e-02 0. 3.26797389e-03 0. 9.80392173e-02 0. 0. 0. 0. 0.
      0. 0. 9.80392192e-03 0. 0. 0. 0. 0. 0. 0. 0. 3.26797389e-03 0. 0.
      0. 0. 0. 0. 0. 0. 0. 0. 0. 0. 0. 0. 0. 0. 0. 0. 0. 0. 0. 0. 0. 0.
      0. 0. 0. 0. 0. 0. 0. 0. 3.26797389e-03 0. 0. 0. 0. 0.
      3.26797389e-03 0. 2.28758175e-02 0. 2.94117648e-02 0. 0. 0.
      2.28758175e-02 0. 3.26797389e-03 0. 0. 0. 0. 0. 0. 3.26797389e-03
      0. 0. 0. 0. 0. 0. 3.26797389e-03 0. 0. 0. 0. 0. 0. 0. 0.
      1.30718956e-02 4.24836613e-02 0. 2.94117648e-02 0. 0. 0.
      2.28758175e-02 0. 0. 0. 0. 0. 0. 6.53594779e-03 2.28758175e-02
      4.24836613e-02 2.28758175e-02 0. 6.53594779e-03 0. 0. 0.
      3.26797389e-03 1.30718956e-02 3.26797389e-03 0. 3.26797389e-03
      3.26797389e-03 0. 4.24836613e-02 4.24836613e-02 1.30718956e-02
      9.80392192e-03 3.26797389e-03 3.26797389e-03 9.80392192e-03 0.
      6.53594779e-03 2.61437912e-02 0. 0. 0. 0. 6.53594779e-03 0.
      9.80392192e-03 1.63398702e-02 6.53594779e-03 0. 0. 0.
      3.26797389e-03 0. 0. 0. 0. 0. 0. 0. 1.63398702e-02 0.
      2.61437912e-02 1.30718956e-02 3.26797389e-03 0. 0. 0. 0. 0.
      3.26797389e-03 0. 0. 0. 0. 0. 3.26797389e-03 0. 0. 0. 0. 0.
      3.26797389e-03 0. 0. 0. 0. 0. 1.30718956e-02 0. 0. 0.
      3.92156877e-02 0. 2.61437912e-02 1.96078438e-02 9.80392192e-03 0.
      0. 0. 0. 3.26797389e-03 0. 6.53594779e-03 0. 0. 0. 0. 0. 0. 0. 0.
      0. 0. 0. 0. 3.26797389e-03 0. 0. 0. 0. 0. 0. 0. 0. 0.
      6.53594779e-03 0. 3.26797389e-03 0. 0. 0. 0. 0. 3.26797389e-03 0.
      0. 0. 0. 0. 0. 0. 0. 0. 3.26797389e-03 0. 0. 0. 0. 0. 0.
      3.26797389e-03 1.30718956e-02 0. 3.26797389e-03 0. 3.26797403e-02
      6.53594779e-03 0. 9.80392192e-03 0. 0. 0. 2.28758175e-02 0. 0. 0.
      5.22875823e-02 0. 0. 0. 0. 0. 0. 0. 6.53594779e-03 0. 0.
      3.26797389e-03 0. 0. 0. 0. 0. 0. 0. 0. 0. 0. 3.26797389e-03 0.
      1.96078438e-02 0. 0. 0. 0. 0. 0. 0. 0. 0. 0. 0. 3.26797389e-03 0.
      0. 0. 0. 0. 0. 0. 0. 0. 0. 0. 0. 0. 0. 0. 1.30718956e-02 0. 0.
      3.26797389e-03 1.96078438e-02 0. 3.26797389e-03 0. 2.61437912e-02
      0. 0. 3.26797389e-03 6.53594807e-02 0. 3.26797389e-03 0. 0. 0.
      3.26797389e-03 3.26797389e-03 1.63398702e-02 0. 0. 0. 0. 0. 0. 0.
      3.26797389e-03 3.26797389e-03 0. 0. 0. 0. 0. 0. 9.80392192e-03
      3.26797389e-03 6.53594779e-03 0. 1.63398702e-02 0. 0. 0.
      1.30718956e-02 0. 0. 0. 0. 0. 0. 0. 3.26797389e-03 0.
      1.63398702e-02 0. 1.30718956e-02 0. 0. 0. 6.53594779e-03
      3.26797389e-03 3.26797389e-03 0. 1.30718956e-02 6.53594779e-03
      6.53594779e-03 3.92156877e-02 1.73202619e-01 9.80392192e-03
      6.53594779e-03 3.26797389e-03 1.30718956e-02 1.63398702e-02 0.
      9.80392192e-03 1.96078438e-02 0. 0. 0. 0. 3.26797389e-03 0.
      6.53594779e-03 3.59477140e-02 0. 3.26797389e-03 0. 0.
      3.26797389e-03 0. 0. 0. 3.26797389e-03 3.26797389e-03 0. 0.
      3.26797389e-03 0. 1.96078438e-02 1.30718956e-02 0. 0. 0. 0.
      3.26797389e-03 0. 0. 0. 0. 0. 0. 0. 0. 0. 0. 0. 6.53594779e-03 0.
      0. 0. 0. 0. 0. 0. 2.28758175e-02 0. 0. 3.26797389e-03
      2.94117648e-02 0. 1.63398702e-02 9.80392192e-03 1.96078438e-02
      3.26797389e-03 3.26797389e-03 6.53594779e-03 1.30718956e-02 0. 0.
      0. 0. 0. 0. 0. 6.53594779e-03 0. 0. 0. 0. 0. 0. 0. 0. 0. 0. 0. 0.
      0. 0. 0. 0. 0. 0. 0. 9.80392192e-03 0. 0. 0. 0. 0. 0. 0. 0. 0. 0.
      0. 0. 0. 0. 0. 3.26797389e-03 0. 0. 0. 0. 0. 0. 0. 2.61437912e-02
      0. 0. 0. 3.92156877e-02 0. 3.26797389e-03 0. 0. 3.26797389e-03 0.
      2.94117648e-02 0. 0. 0. 1.07843138e-01 0. 0. 0. 0. 3.26797389e-03
      0. 0. 4.57516350e-02 0. 0. 0. 0. 0. 0. 0. 0. 0. 0. 0. 0. 0. 0. 0.
      3.26797389e-03 0. 0. 0. 0. 0. 0. 0. 0. 0. 0. 0. 0. 0. 0. 0. 0. 0.
      0. 0. 0. 0. 0. 0. 0. 0. 6.53594779e-03 0. 6.53594779e-03 0.
      3.26797389e-03 0. 9.80392192e-03 0. 1.30718956e-02 0.
      1.33986935e-01 0. 0. 0. 8.82352963e-02 0. 0. 0. 0. 0. 0. 0.
      1.30718956e-02 0. 0. 0. 0. 0. 0. 0. 0. 0. 3.26797389e-03 0. 0. 0.
      0. 0. 0. 6.53594779e-03 3.26797403e-02 0. 9.80392192e-03 0. 0. 0.
      0. 0. 0. 0. 0. 0. 0. 0. 6.53594779e-03 9.80392192e-03
      9.80392192e-03 0. 0. 0. 0. 0. 0. 6.53594779e-03 3.26797389e-03
      3.26797389e-03 3.26797389e-03 0. 0. 0. 3.92156877e-02
      9.80392192e-03 0. 3.26797389e-03 3.26797389e-03 1.63398702e-02
      3.26797389e-03 9.80392192e-03 2.61437912e-02 0. 0. 0. 0. 0. 0.
      6.53594779e-03 1.96078438e-02 0. 0. 0. 0. 0. 0. 3.26797389e-03 0.
      3.26797389e-03 0. 0. 0. 1.96078438e-02 0. 9.80392192e-03
      3.26797389e-03 3.26797389e-03 0. 0. 0. 0. 0. 0. 0. 0. 0. 0. 0. 0.
      0. 0. 0. 3.26797389e-03 0. 3.26797389e-03 3.26797389e-03
      6.53594779e-03 0. 0. 0. 1.96078438e-02 0. 0. 0. 1.40522882e-01 0.
      3.26797389e-03 3.26797389e-03 1.63398702e-02 0. 0. 6.53594779e-03
      3.26797389e-03 0. 0. 6.53594779e-03 3.26797389e-03 0. 0. 0.
      3.26797389e-03 0. 0. 0. 0. 0. 0. 0. 0. 0. 0. 0. 0. 0. 0. 0. 0. 0.
      0. 0. 3.26797389e-03 0. 0. 3.26797389e-03 0. 0. 0. 0. 0. 0. 0. 0.
      0. 0. 0. 3.26797389e-03 1.30718956e-02 0. 0. 0. 0. 0. 0. 0.
      3.26797403e-02 3.26797389e-03 0. 0. 2.94117648e-02 0. 0. 0. 0.
      3.26797389e-03 0. 2.28758175e-02 0. 0. 3.26797389e-03
      1.04575165e-01 0. 0. 0. 0. 0. 0. 0. 1.96078438e-02 0. 0. 0. 0. 0.
      0. 0. 3.26797389e-03 0. 0. 0. 0. 0. 3.26797389e-03 3.26797389e-03
      1.30718956e-02 0. 0. 0. 3.26797389e-03 0. 0. 0. 0. 0. 0. 0. 0. 0.
      0. 0. 0. 0. 0. 0. 0. 0. 0. 0. 0. 0. 0. 0. 0. 3.26797389e-03 0. 0.
      2.28758175e-02 3.26797389e-03 0. 0. 8.16993490e-02 0.
      6.53594779e-03 3.26797389e-03 8.49673226e-02 0. 3.26797389e-03 0.
      0. 0. 0. 3.26797389e-03 6.53594779e-03 0. 0. 0. 0. 0. 0. 0. 0. 0.
      0. 0. 3.26797389e-03 0. 0. 0. 0. 3.26797389e-03 6.53594779e-03 0.
      1.30718956e-02 0. 0. 0. 6.53594779e-03 0. 0. 0. 3.26797389e-03 0.
      0. 0. 3.26797389e-03 3.26797389e-03 3.26797389e-03 0.
      9.80392192e-03 0. 0. 3.26797389e-03 6.53594779e-03 1.30718956e-02
      0. 0. 1.96078438e-02 6.53594779e-03 0. 0. 4.57516350e-02
      6.53594779e-03 3.26797389e-03 0. 0. 1.63398702e-02 3.26797389e-03
      9.80392192e-03 2.94117648e-02 6.53594779e-03 0. 0. 0. 0. 0.
      1.30718956e-02 6.86274543e-02 0. 6.53594779e-03 3.26797389e-03 0.
      0. 0. 0. 0. 0. 0. 0. 0. 3.26797389e-03 0. 1.96078438e-02
      1.96078438e-02 0. 3.26797389e-03 0. 0. 0. 0. 0. 0. 0. 0. 0. 0. 0.
      0. 0. 0. 0. 0. 0. 0. 0. 0. 0. 0. 1.30718956e-02 0. 0. 0.
      9.15032700e-02 0. 3.26797389e-03 9.80392192e-03 6.53594779e-03 0.
      0. 0. 2.28758175e-02 0. 0. 0. 0. 0. 0. 0. 3.26797389e-03 0. 0. 0.
      0. 0. 0. 0. 0. 0. 0. 0. 0. 0. 0. 0. 3.26797389e-03 0. 0. 0. 0.
      3.26797389e-03 0. 0. 0. 0. 0. 3.26797389e-03 0. 0. 0. 0. 0. 0. 0.
      0. 0. 0. 0. 0. 0. 0. 0. 0. 1.96078438e-02 0. 0. 0. 4.24836613e-02
      0. 0. 0. 3.26797389e-03 0. 0. 2.61437912e-02 0. 3.26797389e-03 0.
      1.56862751e-01 0. 0. 0. 0. 0. 0. 0. 2.61437912e-02 0. 0. 0. 0. 0.
      0. 0. 0. 0. 0. 0. 0. 0. 0. 0. 1.30718956e-02 0. 0. 0. 0. 0. 0. 0.
      0. 0. 0. 0. 0. 0. 0. 0. 0. 0. 0. 0. 0. 0. 0. 0. 0. 0. 0. 0. 0. 0.
      0. 0. 1.96078438e-02 0. 0. 0. 7.84313753e-02 0. 0. 0.
      9.80392173e-02 0. 0. 0. 0. 0. 0. 0. 1.30718956e-02 0. 0. 0. 0. 0.
      0. 0. 0. 0. 3.26797389e-03 0. 0. 0. 0. 0. 0. 0. 2.28758175e-02 0.
      3.26797389e-03 0. 0. 3.26797389e-03 6.53594779e-03 0. 0. 0. 0. 0.
      0. 0. 0. 1.63398702e-02 9.80392192e-03 0. 0. 0. 0. 0.
      3.26797389e-03 9.80392192e-03 0. 0. 9.80392192e-03 0. 0. 0.
      3.92156877e-02 0. 0. 0. 3.26797389e-03 9.80392192e-03 0.
      6.53594779e-03 2.28758175e-02 0. 0. 0. 0. 0. 0. 9.80392192e-03 0.
      0. 0. 0. 0. 0. 0. 0. 0. 0. 0. 0. 0. 6.53594779e-03 0.
      9.80392192e-03 9.80392192e-03 0. 0. 0. 0. 0. 0. 0. 0. 0. 0. 0. 0.
      0. 0. 0. 0. 3.26797389e-03 0. 0. 0. 0. 0. 0. 0. 6.53594779e-03 0.
      0. 0. 5.22875823e-02 0. 1.30718956e-02 6.53594779e-03
      3.26797389e-03 3.26797389e-03 0. 0. 2.28758175e-02 0. 0. 0. 0. 0.
      0. 0. 0. 0. 0. 0. 0. 0. 0. 0. 0. 0. 0. 0. 3.26797389e-03 0. 0. 0.
      3.26797389e-03 0. 0. 0. 0. 0. 0. 0. 0. 0. 0. 0. 0. 0. 0. 0. 0. 0.
      0. 0. 6.53594779e-03 0. 0. 0. 0. 0. 0. 0. 1.96078438e-02 0. 0. 0.
      4.90196086e-02 0. 6.53594779e-03 3.26797389e-03 0. 3.26797389e-03
      0. 2.94117648e-02 0. 3.26797389e-03 0. 8.16993490e-02 0. 0. 0. 0.
      0. 0. 0. 2.28758175e-02 0. 0. 0. 0. 0. 0. 0. 0. 0. 0. 0. 0. 0. 0.
      0. 9.80392192e-03 0. 0. 0. 0. 0. 0. 0. 0. 0. 0. 0. 0. 0. 0. 0. 0.
      0. 0. 0. 0. 0. 0. 0. 0. 0. 0. 0. 6.53594779e-03 0. 0. 0.
      2.94117648e-02 6.53594779e-03 3.26797389e-03 0. 7.51634017e-02
      3.26797389e-03 0. 0. 1.30718961e-01 0. 0. 0. 0. 3.26797389e-03 0.
      0. 9.80392192e-03 0. 0. 0. 0. 0. 0. 0. 0. 0. 0. 0. 0. 0. 0. 0.
      1.30718956e-02 0. 1.63398702e-02 0. 1.96078438e-02 0.
      3.26797389e-03 0. 9.80392192e-03 0. 0. 0. 0. 0. 0. 0.
      3.26797389e-03 9.80392192e-03 1.30718956e-02 0. 9.80392192e-03 0.
      0. 0. 6.53594779e-03 9.80392192e-03 6.53594779e-03 0.
      1.96078438e-02 9.80392192e-03 9.80392192e-03 0. 1.40522882e-01
      9.80392192e-03 1.30718956e-02 0. 3.26797389e-03 9.80392192e-03 0.
      3.26797389e-03 1.63398702e-02 0. 0. 0. 0. 0. 0. 3.26797389e-03
      1.63398702e-02 2.28758175e-02 9.80392192e-03 0. 0. 0. 0. 0. 0.
      6.53594779e-03 0. 0. 0. 0. 3.26797389e-03 2.61437912e-02
      1.30718956e-02 0. 0. 0. 0. 0. 0. 0. 0. 0. 0. 0. 0. 0. 0. 0. 0.
      3.26797389e-03 0. 0. 0. 3.26797389e-03 0. 0. 0. 6.53594779e-03 0.
      0. 0. 4.57516350e-02 0. 2.28758175e-02 0. 1.63398702e-02 0.
      3.26797389e-03 0. 1.30718956e-02 0. 0. 0. 3.26797389e-03 0. 0. 0.
      0. 0. 3.26797389e-03 0. 0. 0. 0. 0. 0. 0. 0. 0. 3.26797389e-03 0.
      0. 0. 3.26797389e-03 0. 0. 0. 3.26797389e-03 0. 0. 0.
      3.26797389e-03 0. 0. 0. 0. 0. 0. 0. 0. 0. 0. 0. 6.53594779e-03 0.
      0. 0. 3.26797389e-03 0. 0. 0. 4.24836613e-02 0. 3.26797389e-03 0.
      2.94117648e-02 0. 6.53594779e-03 3.26797389e-03 0. 6.53594779e-03
      0. 3.92156877e-02 3.26797389e-03 0. 0. 1.24183007e-01 0. 0. 0. 0.
      0. 0. 0. 2.28758175e-02 0. 0. 0. 0. 0. 0. 0. 0. 0. 0. 0. 0. 0. 0.
      0. 3.26797389e-03 0. 0. 0. 0. 0. 0. 0. 0. 0. 0. 0. 0. 0. 0. 0. 0.
      0. 0. 0. 0. 0. 0. 0. 0. 0. 3.26797389e-03 0. 3.26797389e-03 0.
      3.26797389e-03 0. 1.63398702e-02 0. 1.30718956e-02 0.
      1.37254909e-01 0. 0. 0. 5.22875823e-02 0. 0. 0. 0. 0. 0. 0.
      9.80392192e-03 0. 0. 0. 3.26797389e-03 0. 0. 0. 0. 0. 0. 0. 0. 0.
      0. 0. 0. 0. 6.53594779e-03 0. 2.94117648e-02 3.26797389e-03 0. 0.
      9.80392192e-03 0. 0. 0. 0. 0. 0. 3.26797389e-03 3.26797389e-03
      6.53594779e-03 9.80392192e-03 3.26797389e-03 6.53594779e-03 0. 0.
      0. 9.80392192e-03 1.63398702e-02 0. 3.26797389e-03 6.53594779e-03
      1.30718956e-02 0. 1.96078438e-02 2.28758175e-02 6.53594779e-03
      9.80392192e-03 6.53594779e-03 0. 1.30718956e-02 0. 3.26797389e-03
      2.61437912e-02 3.26797389e-03 3.26797389e-03 0. 0. 3.26797389e-03
      0. 1.63398702e-02 3.26797403e-02 9.80392192e-03 3.26797389e-03 0.
      0. 0. 0. 0. 0. 3.26797389e-03 0. 0. 0. 1.96078438e-02 0.
      3.26797403e-02 1.63398702e-02 0. 0. 0. 0. 3.26797389e-03 0. 0. 0.
      0. 0. 0. 0. 0. 0. 0. 0. 0. 3.26797389e-03 0. 0. 3.26797389e-03 0.
      0. 0. 1.96078438e-02 0. 0. 0. 7.18954280e-02 0. 1.30718956e-02
      9.80392192e-03 3.26797389e-03 0. 0. 3.26797389e-03 6.53594779e-03
      0. 0. 0. 0. 0. 0. 0. 0. 0. 0. 0. 0. 0. 0. 0. 0. 0. 0. 0. 0. 0. 0.
      0. 0. 0. 0. 0. 0. 0. 0. 0. 0. 0. 0. 0. 0. 0. 0. 0. 0. 0. 0. 0.
      1.96078438e-02 3.26797389e-03 0. 0. 0. 0. 0. 0. 2.61437912e-02 0.
      0. 0. 1.63398702e-02 0. 3.26797389e-03 3.26797389e-03 0.
      6.53594779e-03 0. 3.26797403e-02 0. 0. 0. 7.84313753e-02 0. 0. 0.
      0. 0. 0. 0. 4.57516350e-02 0. 3.26797389e-03 0. 0. 0. 0. 0. 0. 0.
      0. 0. 0. 3.26797389e-03 0. 0. 6.53594779e-03 0. 0. 0. 0. 0. 0. 0.
      0. 0. 0. 0. 0. 0. 0. 0. 0. 0. 0. 0. 0. 0. 0. 0. 0. 0. 0. 0.
      3.26797389e-03 0. 0. 0. 6.53594779e-03 0. 2.61437912e-02 0.
      8.82352963e-02 0. 0. 0. 5.88235296e-02 0. 0. 0. 0. 0.
      3.26797389e-03 0. 9.80392192e-03 0. 0. 0. 0. 0. 0. 0. 0. 0. 0. 0.
      3.26797389e-03 0. 0. 3.26797389e-03 3.26797389e-03 2.28758175e-02
      1.30718956e-02 0. 6.53594779e-03 0. 0. 3.26797389e-03
      1.30718956e-02 3.26797389e-03 0. 0. 0. 0. 0. 0. 3.26797389e-03
      3.92156877e-02 9.80392192e-03 3.26797389e-03 6.53594779e-03 0. 0.
      0. 3.26797389e-03 6.53594779e-03 3.26797389e-03 0. 1.30718956e-02
      0. 0. 3.26797389e-03 4.57516350e-02 6.53594779e-03 0.
      3.26797389e-03 3.26797389e-03 2.28758175e-02 3.26797389e-03 0.
      1.30718956e-02 0. 0. 0. 0. 6.53594779e-03 0. 0. 9.80392192e-03 0.
      0. 0. 0. 0. 0. 3.26797389e-03 0. 0. 0. 0. 0. 0. 0. 0.
      9.80392192e-03 0. 0. 0. 0. 0. 0. 0. 0. 0. 0. 0. 0. 0. 0. 0. 0. 0.
      0. 0. 0. 6.53594779e-03 0. 0. 0. 0. 0. 0. 0. 7.84313753e-02 0.
      1.63398702e-02 0. 1.63398702e-02 0. 3.26797389e-03 0.
      1.30718956e-02 0. 0. 3.26797389e-03 6.53594779e-03 0. 0. 0. 0. 0.
      0. 0. 0. 0. 0. 0. 0. 0. 0. 0. 3.26797389e-03 0. 0. 0. 0. 0. 0. 0.
      0. 0. 0. 0. 6.53594779e-03 0. 0. 0. 0. 0. 0. 0. 0. 0. 0. 0. 0. 0.
      0. 0. 3.26797389e-03 0. 0. 0. 9.15032700e-02 0. 0. 0.
      5.55555560e-02 0. 3.26797389e-03 3.26797389e-03 0. 0. 0.
      1.63398702e-02 0. 3.26797389e-03 0. 1.20915033e-01 0. 0. 0. 0. 0.
      0. 0. 3.92156877e-02 0. 0. 0. 0. 0. 0. 0. 0. 0. 0. 0. 0. 0. 0. 0.
      3.26797389e-03 0. 0. 0. 0. 0. 0. 0. 0. 0. 0. 0. 0. 0. 0. 0. 0. 0.
      0. 0. 0. 0. 0. 0. 0. 0. 0. 0. 9.80392192e-03 0. 0. 0.
      1.30718956e-02 0. 0. 0. 1.83006540e-01 0. 0. 3.26797389e-03
      1.14379086e-01 0. 0. 0. 0. 0. 0. 0. 6.53594779e-03 0. 0. 0. 0. 0.
      0. 0. 0. 0. 3.26797389e-03 0. 0. 0. 0. 0. 3.26797389e-03 0.
      3.26797389e-03 0. 3.26797389e-03 0. 0. 0. 0. 0. 3.26797389e-03 0.
      0. 0. 0. 0. 6.53594779e-03 0. 0. 0. 6.53594779e-03 0. 0. 0.
      3.26797389e-03 3.26797389e-03 0. 9.80392192e-03 1.96078438e-02 0.
      0. 0. 2.94117648e-02 9.80392192e-03 3.26797389e-03 0. 0.
      3.26797389e-03 0. 6.53594779e-03 3.59477140e-02 3.26797389e-03 0.
      0. 0. 6.53594779e-03 3.26797389e-03 3.26797403e-02 5.55555560e-02
      3.26797389e-03 0. 0. 0. 0. 0. 0. 0. 3.26797389e-03 0. 0. 0.
      2.61437912e-02 0. 2.61437912e-02 6.20915033e-02 0. 0. 0. 0. 0. 0.
      0. 0. 0. 0. 0. 0. 0. 0. 0. 3.26797389e-03 0. 0. 0. 0.
      3.26797389e-03 0. 0. 3.26797389e-03 2.28758175e-02 0. 0. 0.
      2.94117648e-02 0. 1.30718956e-02 1.96078438e-02 6.53594779e-03 0.
      0. 0. 9.80392192e-03 0. 6.53594779e-03 3.26797389e-03 0. 0. 0. 0.
      0. 0. 0. 3.26797389e-03 0. 0. 0. 0. 0. 0. 0. 0. 0. 0. 0. 0. 0. 0.
      0. 0. 0. 0. 0. 0. 3.26797389e-03 0. 0. 0. 0. 0. 0. 0. 0. 0. 0. 0.
      3.26797389e-03 0. 0. 3.26797389e-03 0. 0. 0. 0. 2.94117648e-02 0.
      0. 0. 2.94117648e-02 0. 3.26797389e-03 0. 0. 0. 0. 2.61437912e-02
      0. 0. 0. 6.53594807e-02 0. 0. 0. 0. 0. 0. 0. 4.57516350e-02 0. 0.
      0. 0. 0. 0. 0. 0. 0. 0. 0. 0. 0. 3.26797389e-03 0. 1.96078438e-02
      0. 0. 0. 0. 0. 0. 0. 0. 0. 0. 0. 0. 0. 0. 0. 0. 0. 0. 0. 0. 0. 0.
      0. 0. 0. 0. 0. 9.80392192e-03 0. 3.26797389e-03 0. 1.96078438e-02
      0. 0. 0. 6.86274543e-02 0. 0. 0. 8.82352963e-02 0. 0. 0. 0. 0. 0.
      3.26797389e-03 1.30718956e-02 0. 0. 0. 0. 0. 0. 0. 0. 0.
      3.26797389e-03 3.26797389e-03 0. 0. 0. 0. 0. 0. 0. 0. 0. 0. 0. 0.
      3.26797389e-03 0. 0. 0. 0. 0. 0. 0. 1.30718956e-02 0.
      3.26797389e-03 0. 6.53594779e-03 0. 0. 0. 0. 0. 3.26797389e-03 0.
      1.63398702e-02 3.26797389e-03 3.26797389e-03 6.53594779e-03
      9.15032700e-02 1.96078438e-02 2.94117648e-02 0. 6.53594779e-03
      3.26797389e-03 0. 0. 3.26797389e-03 0. 0. 0. 0. 6.53594779e-03 0.
      9.80392192e-03 3.92156877e-02 3.26797403e-02 2.61437912e-02 0.
      3.26797389e-03 0. 0. 0. 0. 6.53594779e-03 0. 0. 0. 0. 0.
      3.92156877e-02 2.61437912e-02 3.26797389e-03 0. 3.26797389e-03 0.
      0. 0. 0. 0. 0. 0. 0. 0. 0. 0. 0. 0. 0. 0. 3.26797389e-03 0. 0. 0.
      0. 0. 1.63398702e-02 0. 0. 0. 9.80392192e-03 0. 1.63398702e-02
      3.26797389e-03 0. 0. 0. 3.26797389e-03 0. 0. 0. 0. 0. 0. 0. 0. 0.
      0. 0. 0. 0. 0. 0. 0. 0. 0. 0. 0. 3.26797389e-03 0. 0. 0. 0. 0.
      3.26797389e-03 0. 6.53594779e-03 6.53594779e-03 0. 0. 0. 0. 0. 0.
      0. 0. 0. 0. 0. 0. 0. 0. 1.96078438e-02 0. 0. 0. 0. 0. 0. 0.
      2.61437912e-02 0. 0. 0. 6.53594779e-03 0. 3.26797389e-03
      3.26797389e-03 0. 9.80392192e-03 0. 0. 0. 0. 0. 3.26797389e-03 0.
      0. 0. 0. 0. 0. 0. 1.30718956e-02 0. 0. 0. 0. 0. 0. 0. 0. 0. 0. 0.
      0. 0. 0. 0. 3.26797389e-03 0. 0. 0. 0. 0. 0. 0. 0. 0. 0. 0. 0. 0.
      0. 0. 0. 0. 0. 0. 0. 0. 0. 0. 3.26797389e-03 0. 0. 0.
      3.26797389e-03 0. 0. 0. 9.80392192e-03 3.26797389e-03
      3.92156877e-02 0. 9.15032700e-02 0. 0. 0. 1.30718956e-02 0.
      3.26797389e-03 0. 0. 0. 0. 3.26797389e-03 3.26797389e-03 0. 0. 0.
      0. 0. 0. 0. 0. 0. 0. 0. 0. 0. 0. 0. 3.26797389e-03 9.80392192e-03
      1.40522882e-01 3.26797389e-03 1.30718956e-02 0. 0. 0.
      6.53594779e-03 0. 0. 0. 0. 3.26797389e-03 0. 6.53594779e-03
      2.61437912e-02 5.22875823e-02 4.24836613e-02 0. 0. 0. 0. 0.
      6.53594779e-03 6.53594779e-03 3.26797389e-03 0. 3.26797389e-03
      1.63398702e-02 3.26797389e-03 2.94117648e-02 3.26797403e-02
      1.63398702e-02 3.92156877e-02 0. 0. 0. 0. 3.26797389e-03
      9.80392192e-03 0. 0. 0. 0. 3.26797389e-03 3.26797389e-03
      1.63398702e-02 6.53594807e-02 3.59477140e-02 2.94117648e-02 0. 0.
      0. 0. 0. 0. 3.26797389e-03 0. 0. 0. 0. 3.26797389e-03
      8.16993490e-02 7.84313753e-02 0. 0. 0. 0. 0. 0. 0. 0. 0. 0. 0. 0.
      0. 0. 0. 0. 0. 0. 0. 0. 0. 0. 0. 1.30718956e-02 3.26797389e-03 0.
      0. 0. 3.26797389e-03 0. 1.30718956e-02 3.26797389e-03 0. 0. 0. 0.
      0. 0. 0. 3.26797389e-03 0. 0. 0. 0. 0. 0. 0. 0. 3.26797389e-03 0.
      0. 0. 0. 0. 0. 0. 0. 0. 0. 0. 0. 0. 3.26797389e-03 0.
      6.53594779e-03 0. 0. 0. 0. 0. 0. 0. 0. 0. 0. 0. 0. 0. 0. 0.
      3.26797403e-02 0. 3.26797389e-03 6.53594779e-03 3.26797389e-03 0.
      0. 0. 3.59477140e-02 0. 0. 0. 0. 0. 3.26797389e-03 9.80392192e-03
      0. 6.53594779e-03 0. 3.26797389e-03 0. 0. 0. 3.26797389e-03
      3.26797389e-03 0. 0. 0. 0. 0. 0. 3.59477140e-02 0. 0. 0. 0. 0. 0.
      0. 0. 0. 0. 0. 0. 0. 0. 3.26797389e-03 1.30718956e-02 0. 0. 0. 0.
      0. 0. 0. 0. 0. 0. 0. 0. 0. 0. 0. 0. 0. 0. 0. 0. 0. 0. 0. 0. 0. 0.
      0. 0. 0. 0. 3.26797389e-03 9.80392192e-03 3.26797389e-03
      2.61437912e-02 0. 4.24836613e-02 0. 3.26797389e-03 0.
      9.80392192e-03 0. 3.26797389e-03 0. 0. 0. 0. 3.26797389e-03
      1.96078438e-02 0. 0. 0. 0. 0. 0. 0. 0. 0. 0. 0. 0. 0. 0. 0.
      9.80392192e-03 1.30718956e-02 1.30718956e-02 0. 1.63398702e-02 0.
      3.26797389e-03 3.26797389e-03 1.30718956e-02 0. 0. 0. 0. 0. 0. 0.
      1.96078438e-02 5.55555560e-02 1.96078438e-02 3.26797389e-03
      6.53594779e-03 0. 0. 0. 6.53594779e-03 1.30718956e-02
      3.26797389e-03 0. 0. 6.53594779e-03 0. 1.63398702e-02
      4.90196086e-02 2.94117648e-02 3.92156877e-02 0. 0. 0. 0. 0.
      3.26797389e-03 3.26797389e-03 0. 0. 0. 0. 6.53594779e-03
      1.96078438e-02 5.55555560e-02 3.59477140e-02 5.22875823e-02 0. 0.
      0. 0. 0. 0. 0. 0. 0. 0. 0. 0. 6.53594807e-02 5.88235296e-02
      3.26797389e-03 3.26797389e-03 0. 0. 0. 0. 0. 0. 0. 0. 0. 0. 0. 0.
      0. 3.26797389e-03 0. 0. 3.26797389e-03 0. 0. 0. 6.53594779e-03 0.
      0. 0. 0. 0. 0. 0. 1.96078438e-02 3.26797389e-03 3.26797389e-03 0.
      0. 0. 0. 0. 0. 3.26797389e-03 0. 0. 0. 0. 0. 0. 0. 0. 0. 0. 0. 0.
      0. 0. 0. 0. 0. 0. 0. 0. 0. 0. 0. 0. 3.26797389e-03 3.26797389e-03
      0. 0. 0. 0. 0. 0. 0. 0. 0. 0. 0. 0. 0. 3.26797389e-03
      9.80392192e-03 3.26797389e-03 0. 0. 0. 0. 3.26797389e-03 0.
      2.61437912e-02 0. 0. 0. 0. 0. 0. 6.53594779e-03 6.53594779e-03
      3.26797389e-03 0. 6.53594779e-03 0. 3.26797389e-03 0.
      1.30718956e-02 0. 0. 0. 0. 0. 3.26797389e-03 3.26797389e-03
      9.80392192e-03 3.26797389e-03 0. 0. 0. 0. 0. 0. 0. 3.26797389e-03
      0. 0. 0. 0. 0. 0. 3.26797389e-03 3.26797389e-03 0. 0. 0. 0. 0. 0.
      3.26797389e-03 0. 0. 0. 0. 0. 0. 3.26797389e-03 0. 0. 0. 0.
      3.26797389e-03 0. 0. 0. 0. 0. 0. 0. 0. 0. 0. 3.26797389e-03
      3.26797389e-03 0. 2.94117648e-02 0. 4.90196086e-02 0.
      3.26797389e-03 0. 3.26797389e-03 0. 0. 0. 3.26797389e-03 0. 0. 0.
      3.26797389e-03 0. 0. 0. 3.26797389e-03 0. 0. 0. 0. 0. 0. 0. 0. 0.
      0. 9.80392192e-03 0. 1.96078438e-02 1.14379086e-01 3.26797389e-03
      3.26797389e-03 0. 0. 0. 3.26797389e-03 0. 9.80392192e-03
      3.26797389e-03 0. 0. 0. 9.80392192e-03 1.30718956e-02
      5.55555560e-02 1.30718956e-02 3.26797389e-03 0. 0. 3.26797389e-03
      0. 6.53594779e-03 3.26797389e-03 0. 0. 3.26797389e-03 0.
      3.26797389e-03 2.61437912e-02 4.24836613e-02 1.96078438e-02
      4.57516350e-02 0. 3.26797389e-03 3.26797389e-03 0. 0.
      6.53594779e-03 0. 0. 0. 0. 3.26797389e-03 0. 1.63398702e-02
      1.01307191e-01 3.59477140e-02 3.59477140e-02 0. 0. 0. 0. 0. 0. 0.
      0. 0. 0. 6.53594779e-03 0. 3.92156877e-02 2.94117648e-02 0. 0. 0.
      0. 0. 0. 0. 0. 0. 0. 0. 0. 0. 0. 0. 6.53594779e-03 0. 0. 0. 0. 0.
      0. 0. 0. 3.26797389e-03 6.53594779e-03 0. 0. 0. 0. 3.26797389e-03
      0. 3.26797389e-03 0. 0. 0. 0. 0. 0. 0. 0. 0. 0. 0. 0. 0. 0. 0.
      3.26797389e-03 0. 0. 0. 0. 0. 0. 0. 0. 0. 0. 0. 0. 0. 0. 0. 0. 0.
      0. 0. 0. 0. 0. 0. 0. 0. 0. 0. 0. 0. 0. 3.26797389e-03
      2.61437912e-02 0. 0. 3.26797389e-03 0. 0. 0. 0. 4.90196086e-02 0.
      0. 0. 3.26797389e-03 0. 0. 3.26797389e-03 0. 3.26797389e-03 0.
      1.63398702e-02 0. 0. 0. 1.63398702e-02 3.26797389e-03 0. 0. 0. 0.
      3.26797389e-03 0. 2.61437912e-02 0. 0. 0. 0. 0. 0. 0. 0. 0. 0. 0.
      0. 0. 0. 0. 3.26797389e-03 0. 0. 0. 0. 0. 0. 0. 3.26797389e-03 0.
      0. 0. 0. 0. 0. 0. 0. 0. 0. 0. 0. 0. 0. 0. 3.26797389e-03 0. 0. 0.
      0. 0. 3.26797389e-03 0. 6.53594779e-03 0. 2.28758175e-02 0.
      1.30718956e-02 0. 0. 0. 6.53594779e-03 0. 0. 0. 0. 0. 0.
      3.26797389e-03 6.53594779e-03 3.26797389e-03 0. 0. 0. 0. 0. 0. 0.
      0. 0. 0. 0. 0. 0. 0. 0. 2.28758175e-02 8.49673226e-02 0.
      9.80392192e-03 0. 0. 0. 6.53594779e-03 0. 0. 0. 0. 3.26797389e-03
      0. 6.53594779e-03 2.61437912e-02 1.11111112e-01 4.24836613e-02 0.
      0. 0. 0. 0. 3.26797389e-03 1.30718956e-02 0. 0. 3.26797389e-03 0.
      0. 3.26797403e-02 2.94117648e-02</_>
    <_>
      9.80392192e-03 1.96078438e-02 0. 0. 0. 0. 0. 9.80392192e-03 0. 0.
      0. 0. 0. 0. 3.26797389e-03 3.26797389e-03 6.53594779e-03
      3.26797389e-03 0. 0. 0. 0. 0. 0. 0. 0. 0. 0. 1.96078438e-02 0.
      1.96078438e-02 6.53594779e-03 0. 0. 0. 0. 3.26797389e-03 0. 0. 0.
      0. 0. 0. 0. 0. 0. 0. 0. 0. 0. 0. 0. 0. 0. 0. 0. 2.61437912e-02
      1.30718956e-02 0. 0. 1.01307191e-01 0. 2.94117648e-02
      6.53594779e-03 9.80392192e-03 0. 0. 0. 6.53594779e-03 0. 0. 0. 0.
      0. 0. 0. 0. 0. 0. 0. 0. 0. 0. 0. 0. 3.26797389e-03 0. 0. 0. 0. 0.
      0. 0. 0. 0. 0. 0. 0. 0. 0. 3.26797389e-03 0. 0. 0. 0. 0. 0. 0. 0.
      0. 0. 0. 9.80392192e-03 0. 0. 0. 3.26797389e-03 0. 0. 0.
      7.51634017e-02 0. 0. 0. 1.24183007e-01 6.53594779e-03
      3.26797389e-03 6.53594779e-03 0. 0. 0. 6.53594779e-03 0. 0. 0.
      6.53594779e-03 0. 0. 0. 0. 0. 0. 0. 0. 0. 0. 0. 9.80392192e-03 0.
      0. 0. 0. 0. 0. 0. 0. 3.26797389e-03 0. 0. 3.26797389e-03 0. 0. 0.
      0. 0. 0. 0. 0. 0. 0. 0. 0. 0. 0. 0. 0. 0. 0. 0. 0. 0. 0. 0. 0. 0.
      0. 0. 6.53594779e-03 0. 0. 0. 6.53594779e-03 0. 1.96078438e-02 0.
      3.59477140e-02 0. 0. 0. 2.28758175e-02 0. 0. 0. 0. 0.
      3.26797389e-03 0. 6.53594779e-03 0. 0. 0. 0. 0. 0. 0.
      3.26797389e-03 0. 3.26797389e-03 0. 0. 3.26797389e-03 0. 0. 0.
      6.53594779e-03 6.53594779e-03 0. 5.55555560e-02 0. 0. 0.
      1.96078438e-02 0. 0. 0. 3.26797389e-03 0. 0. 3.26797389e-03
      6.53594779e-03 6.53594779e-03 3.26797389e-03 0. 6.53594779e-03 0.
      0. 0. 2.28758175e-02 1.63398702e-02 9.80392192e-03 0.
      2.61437912e-02 9.80392192e-03 1.63398702e-02 1.30718956e-02
      9.47712436e-02 1.30718956e-02 3.26797403e-02 0. 0. 0. 0. 0. 0. 0.
      0. 0. 0. 0. 0. 1.96078438e-02 3.92156877e-02 3.92156877e-02
      6.53594779e-03 3.26797389e-03 0. 0. 0. 0. 3.26797389e-03 0. 0. 0.
      0. 9.80392192e-03 0. 8.49673226e-02 1.63398702e-02 0. 0. 0. 0. 0.
      0. 0. 0. 0. 0. 0. 0. 0. 0. 0. 0. 3.26797389e-03 3.26797389e-03 0.
      0. 0. 0. 0. 0. 0. 0. 0. 0. 6.53594779e-03 0. 6.53594779e-03
      3.26797389e-03 0. 0. 0. 0. 0. 0. 0. 0. 0. 0. 0. 0. 0. 0. 0. 0. 0.
      0. 0. 0. 0. 0. 0. 0. 0. 0. 0. 0. 0. 0. 3.26797389e-03 0. 0.
      3.26797389e-03 0. 3.26797389e-03 0. 0. 0. 0. 0. 0. 0. 0. 0. 0.
      3.26797389e-03 0. 9.80392192e-03 3.26797389e-03 0. 0. 0. 0. 0. 0.
      0. 0. 0. 0. 3.26797389e-03 0. 1.63398702e-02 3.26797389e-03 0. 0.
      0. 0. 0. 0. 0. 3.26797389e-03 0. 0. 0. 0. 0. 0. 0. 1.63398702e-02
      0. 0. 0. 0. 0. 0. 0. 0. 0. 0. 0. 0. 0. 0. 0. 0. 0. 3.26797389e-03
      0. 0. 0. 0. 0. 0. 0. 0. 0. 0. 0. 0. 0. 0. 0. 0. 0. 0. 0. 0. 0. 0.
      0. 0. 0. 0. 0. 0. 0. 0. 0. 0. 0. 1.96078438e-02 0. 0. 0.
      6.53594779e-03 0. 0. 0. 0. 0. 0. 0. 9.80392192e-03 0. 0. 0. 0. 0.
      0. 0. 0. 0. 0. 0. 0. 0. 0. 0. 3.26797389e-03 2.61437912e-02
      2.09150329e-01 0. 1.30718956e-02 0. 0. 0. 6.53594779e-03 0.
      3.26797389e-03 0. 0. 0. 3.26797389e-03 0. 2.28758175e-02
      9.80392173e-02 7.84313753e-02 0. 9.80392192e-03 0. 0. 0.
      3.26797389e-03 1.30718956e-02 3.26797389e-03 0. 6.53594779e-03
      6.53594779e-03 0. 6.86274543e-02 2.61437912e-02 1.30718956e-02
      8.16993490e-02 3.26797389e-03 0. 0. 0. 0. 1.96078438e-02 0.
      6.53594779e-03 0. 0. 0. 3.26797389e-03 2.61437912e-02
      7.84313753e-02 1.30718956e-02 3.59477140e-02 0. 0. 0. 0.
      3.26797389e-03 0. 6.53594779e-03 0. 0. 0. 2.61437912e-02 0.
      7.18954280e-02 1.63398702e-02 0. 0. 0. 0. 0. 0. 0. 3.26797389e-03
      0. 0. 0. 0. 0. 0. 0. 0. 0. 0. 0. 0. 0. 0. 0. 0. 0. 0. 0. 0.
      2.28758175e-02 0. 1.96078438e-02 9.80392192e-03 0. 0. 0. 0. 0. 0.
      0. 0. 0. 0. 0. 0. 0. 0. 0. 0. 0. 0. 0. 0. 0. 0. 0. 0. 0. 0. 0. 0.
      0. 0. 0. 0. 3.26797389e-03 0. 0. 0. 0. 0. 0. 0. 0. 0. 0. 0. 0. 0.
      0. 0. 6.53594779e-03 0. 0. 0. 0. 0. 0. 0. 0. 0. 0. 0.
      3.26797389e-03 0. 6.53594779e-03 0. 0. 0. 0. 0. 0. 0. 0.
      1.30718956e-02 0. 0. 0. 0. 0. 3.26797389e-03 0. 6.53594779e-03 0.
      0. 0. 0. 0. 0. 0. 0. 0. 0. 0. 0. 3.26797389e-03 0. 0.
      3.26797389e-03 0. 0. 0. 0. 0. 0. 0. 0. 0. 0. 0. 0. 0. 0. 0. 0. 0.
      0. 0. 0. 0. 0. 0. 0. 0. 0. 0. 0. 0. 0. 0. 3.26797389e-03 0. 0. 0.
      0. 0. 0. 0. 0. 0. 0. 0. 0. 0. 0. 0. 0. 0. 0. 0. 0. 0. 0. 0. 0.
      6.53594779e-03 0. 0. 0. 0. 0. 0. 0. 1.96078438e-02 2.51634002e-01
      0. 3.26797389e-03 0. 0. 0. 1.63398702e-02 0. 0. 0. 3.26797389e-03
      3.26797389e-03 0. 0. 2.61437912e-02 2.94117648e-02 3.26797403e-02
      3.26797389e-03 6.53594779e-03 0. 0. 0. 3.26797389e-03
      6.53594779e-03 6.53594779e-03 0. 3.26797389e-03 1.30718956e-02
      3.26797389e-03 1.96078438e-02 2.94117648e-02 1.30718956e-02
      3.92156877e-02 0. 6.53594779e-03 3.26797389e-03 0. 0.
      2.61437912e-02 0. 0. 0. 0. 0. 0. 2.61437912e-02 5.55555560e-02
      1.63398702e-02 1.30718956e-02 0. 3.26797389e-03 0. 0. 0. 0.
      1.30718956e-02 0. 0. 0. 4.24836613e-02 0. 1.24183007e-01
      1.30718956e-02 0. 0. 0. 0. 3.26797389e-03 0. 0. 0. 0. 0. 0. 0. 0.
      0. 0. 0. 9.80392192e-03 0. 0. 0. 6.53594779e-03 0. 0. 0.
      1.63398702e-02 0. 0. 0. 3.26797403e-02 0. 3.26797389e-03
      1.30718956e-02 6.53594779e-03 0. 0. 3.26797389e-03 0. 0. 0. 0. 0.
      0. 0. 0. 0. 0. 0. 0. 0. 0. 0. 0. 0. 0. 0. 0. 0. 0. 0. 0. 0. 0. 0.
      0. 0. 0. 0. 0. 0. 0. 0. 0. 0. 0. 0. 0. 0. 0. 0. 0. 2.94117648e-02
      3.26797389e-03 0. 0. 0. 0. 0. 0. 6.53594779e-03 0. 0. 0.
      1.96078438e-02 0. 9.80392192e-03 0. 3.26797389e-03 0. 0.
      1.96078438e-02 0. 0. 0. 6.53594779e-03 0. 0. 0. 0. 0. 0. 0.
      1.30718956e-02 0. 0. 0. 0. 0. 0. 0. 0. 0. 0. 0. 0. 0. 0. 0. 0. 0.
      0. 0. 0. 0. 0. 0. 0. 0. 0. 0. 0. 0. 0. 0. 0. 0. 0. 0.
      3.26797389e-03 0. 0. 0. 0. 0. 0. 0. 0. 0. 0. 0. 0. 3.26797389e-03
      6.53594779e-03 0. 4.90196086e-02 0. 0. 0. 3.26797389e-03 0. 0. 0.
      0. 0. 0. 3.26797389e-03 3.26797389e-03 3.26797389e-03 0. 0. 0. 0.
      0. 0. 0. 0. 0. 0. 0. 0. 0. 0. 3.26797389e-03 2.28758175e-02
      3.59477140e-02 0. 2.28758175e-02 0. 0. 0. 0. 0. 0. 0. 0. 0.
      3.26797389e-03 3.26797389e-03 1.63398702e-02 3.92156877e-02
      4.57516350e-02 0. 6.53594779e-03 0. 0. 0. 0. 1.96078438e-02
      3.26797389e-03 0. 9.80392192e-03 1.30718956e-02 3.26797389e-03
      4.57516350e-02 2.94117648e-02 0. 0. 0. 0. 0. 0. 0. 0. 0. 0. 0. 0.
      0. 0. 0. 0. 0. 0. 0. 0. 0. 0. 0. 0. 0. 0. 0. 0. 0. 3.26797389e-03
      0. 0. 0. 0. 0. 0. 0. 0. 0. 0. 0. 0. 0. 0. 0. 0. 0. 0.
      1.30718956e-02 0. 0. 0. 0. 0. 0. 0. 3.26797389e-03 0. 0. 0.
      3.26797403e-02 0. 3.26797389e-03 3.26797389e-03 6.53594779e-03 0.
      0. 0. 0. 0. 0. 0. 0. 0. 0. 0. 0. 0. 0. 0. 0. 0. 0. 0. 0. 0. 0. 0.
      0. 0. 0. 0. 0. 0. 0. 0. 6.53594779e-03 0. 0. 0. 0. 0. 0. 0. 0. 0.
      0. 0. 0. 0. 0. 0. 1.96078438e-02 6.53594779e-03 0. 0. 0. 0. 0. 0.
      1.11111112e-01 0. 0. 0. 6.53594779e-03 0. 3.26797389e-03
      3.26797389e-03 0. 0. 0. 0. 0. 0. 0. 0. 0. 0. 0. 0. 0. 0. 0. 0. 0.
      0. 0. 0. 0. 0. 0. 0. 0. 3.26797389e-03 0. 0. 0. 0. 0. 0. 0. 0. 0.
      0. 0. 0. 0. 0. 0. 0. 0. 0. 0. 0. 0. 0. 3.26797389e-03
      3.26797389e-03 0. 0. 0. 0. 0. 0. 0. 0. 0. 0. 0. 0. 0.
      9.80392192e-03 0. 3.26797389e-03 0. 6.53594779e-03 0. 0. 0. 0. 0.
      0. 0. 0. 0. 0. 0. 0. 0. 0. 0. 3.26797389e-03 0. 0. 0. 0. 0. 0. 0.
      0. 0. 0. 0. 0. 3.59477140e-02 1.14379086e-01 0. 1.63398702e-02 0.
      0. 0. 0. 0. 3.26797389e-03 0. 0. 0. 0. 0. 0. 2.84313738e-01
      2.12418303e-01 0. 0. 0. 0. 0. 3.26797389e-03 3.59477140e-02
      9.80392192e-03 0. 3.26797389e-03 3.26797389e-03 3.26797389e-03
      6.53594779e-03 1.30718956e-02 9.80392192e-03 0. 0. 6.53594779e-03
      6.53594779e-03 0. 6.53594779e-03 4.24836613e-02 0. 0. 0. 0.
